the 0.04656 0.21318 -0.0074364 -0.45854 -0.035639 0.23643 -0.28836 0.21521 -0.13486 -1.6413 -0.26091 0.032434 0.056621 -0.043296 -0.021672 0.22476 -0.075129 -0.067018 -0.14247 0.038825 -0.18951 0.29977 0.39305 0.17887 -0.17343 -0.21178 0.23617 -0.063681 -0.42318 -0.11661 0.093754 0.17296 -0.33073 0.49112 -0.68995 -0.092462 0.24742 -0.17991 0.097908 0.083118 0.15299 -0.27276 -0.038934 0.54453 0.53737 0.29105 -0.0073514 0.04788 -0.4076 -0.026759 0.17919 0.010977 -0.10963 -0.26395 0.07399 0.26236 -0.1508 0.34623 0.25758 0.11971 -0.037135 -0.071593 0.43898 -0.040764 0.016425 -0.4464 0.17197 0.046246 0.058639 0.041499 0.53948 0.52495 0.11361 -0.048315 -0.36385 0.18704 0.092761 -0.11129 -0.42085 0.13992 -0.39338 -0.067945 0.12188 0.16707 0.075169 -0.015529 -0.19499 0.19638 0.053194 0.2517 -0.34845 -0.10638 -0.34692 -0.19024 -0.2004 0.12154 -0.29208 0.023353 -0.11618 -0.35768 0.062304 0.35884 0.02906 0.0073005 0.0049482 -0.15048 -0.12313 0.19337 0.12173 0.44503 0.25147 0.10781 -0.17716 0.038691 0.08153 0.14667 0.063666 0.061332 -0.075569 -0.37724 0.01585 -0.30342 0.28374 -0.042013 -0.040715 -0.15269 0.07498 0.15577 0.10433 0.31393 0.19309 0.19429 0.15185 -0.10192 -0.018785 0.20791 0.13366 0.19038 -0.25558 0.304 -0.01896 0.20147 -0.4211 -0.0075156 -0.27977 -0.19314 0.046204 0.19971 -0.30207 0.25735 0.68107 -0.19409 0.23984 0.22493 0.65224 -0.13561 -0.17383 -0.048209 -0.1186 0.0021588 -0.019525 0.11948 0.19346 -0.4082 -0.082966 0.16626 -0.10601 0.35861 0.16922 0.07259 -0.24803 -0.10024 -0.52491 -0.17745 -0.36647 0.2618 -0.012077 0.08319 -0.21528 0.41045 0.29136 0.30869 0.078864 0.32207 -0.041023 -0.1097 -0.092041 -0.12339 -0.16416 0.35382 -0.082774 0.33171 -0.24738 -0.048928 0.15746 0.18988 -0.026642 0.063315 -0.010673 0.34089 1.4106 0.13417 0.28191 -0.2594 0.055267 -0.052425 -0.25789 0.019127 -0.022084 0.32113 0.068818 0.51207 0.16478 -0.20194 0.29232 0.098575 0.013145 -0.10652 0.1351 -0.045332 0.20697 -0.48425 -0.44706 0.0033305 0.0029264 -0.10975 -0.23325 0.22442 -0.10503 0.12339 0.10978 0.048994 -0.25157 0.40319 0.35318 0.18651 -0.023622 -0.12734 0.11475 0.27359 -0.21866 0.015794 0.81754 -0.023792 -0.85469 -0.16203 0.18076 0.028014 -0.1434 0.0013139 -0.091735 -0.089704 0.11105 -0.16703 0.068377 -0.087388 -0.039789 0.014184 0.21187 0.28579 -0.28797 -0.058996 -0.032436 -0.0047009 -0.17052 -0.034741 -0.11489 0.075093 0.099526 0.048183 -0.073775 -0.41817 0.0041268 0.44414 -0.16062 0.14294 -2.2628 -0.027347 0.81311 0.77417 -0.25639 -0.11576 -0.11982 -0.21363 0.028429 0.27261 0.031026 0.096782 0.0067769 0.14082 -0.013064 -0.29686 -0.079913 0.195 0.031549 0.28506 -0.087461 0.0090611 -0.20989 0.053913
of -0.076947 -0.021211 0.21271 -0.72232 -0.13988 -0.12234 -0.17521 0.12137 -0.070866 -1.5721 -0.22464 0.04269 -0.4018 0.21006 0.014288 0.41628 0.017165 0.071732 0.0069246 0.18107 -0.15412 0.14933 -0.030493 0.29918 0.029479 -0.036147 -0.061125 0.083918 -0.12398 -0.10077 -0.0054142 0.3371 -0.25612 0.44388 -0.68922 0.1802 0.34898 -0.052284 -0.26226 -0.47109 0.21647 -0.4002 -0.049986 0.011376 0.54994 -0.22791 0.095873 0.47693 -0.056727 -0.17895 0.11756 0.14662 0.048948 0.13587 -0.093821 0.45968 -0.32062 0.29911 0.20656 -0.18503 -0.2769 -0.022545 0.70698 -0.23815 0.16437 -0.55044 -0.0010615 0.12266 0.11898 0.23985 0.29815 0.013207 0.16316 -0.61334 -0.37051 0.19444 -0.13621 -0.30426 -0.37715 0.065299 -0.15995 -0.56516 0.074696 0.40184 0.19328 0.041802 0.20572 0.28971 0.34783 0.33873 -0.10052 -0.16397 -0.15236 -0.086815 0.36522 0.14969 -0.40859 0.23106 0.17162 -0.60545 0.086019 0.37043 0.17937 -0.40282 -0.62471 -0.055919 0.15092 0.12554 -0.45344 0.34417 0.40042 -0.049512 -0.29969 -0.31761 0.30023 0.090029 0.3106 -0.033077 -0.21995 -0.40396 -0.34443 -0.21248 -0.37636 0.21835 -0.1785 -0.17261 0.16391 0.22753 0.2686 0.57541 -0.14912 0.20413 0.22187 -0.27014 0.068253 0.29115 -0.067943 0.10623 -0.16281 0.19939 -0.48613 0.035688 -0.12373 0.13707 0.33359 -0.12713 -0.31711 -0.13962 -0.04288 -0.0014614 0.76883 -0.41705 -0.092911 0.16315 0.29202 0.12119 -0.076683 0.14131 -0.093406 -0.042796 0.13738 0.014278 0.11918 -0.34215 -0.19076 -0.12499 0.24648 0.42259 0.091966 0.45351 0.14437 0.1878 -0.85876 0.059621 -0.32242 0.28627 0.12427 0.0090984 -0.1891 0.16638 0.099881 -0.048553 -0.026257 0.099904 0.12406 -0.015416 -0.29707 -0.4044 -0.17258 0.36468 -0.014118 -0.11889 -0.11686 -0.14124 0.28012 0.067644 0.1485 -0.35702 0.29626 0.36004 1.019 -0.067307 -0.11588 -0.2178 0.070191 0.23154 -0.13849 0.26441 0.28742 0.1941 -0.0060504 0.44105 0.12416 -0.27745 -0.25729 0.10992 0.18362 -0.34522 -0.21861 -0.18825 -0.037454 -0.20862 -0.25216 0.060842 0.068595 0.10275 0.10745 -0.061288 0.19725 -0.27739 -0.022559 0.052794 -0.24083 0.09199 0.30959 0.054999 0.063676 -0.087357 -0.34495 0.22793 -0.42405 0.24536 0.55708 0.19126 -0.797 -0.2048 0.32545 0.09235 0.084791 -0.16433 -0.066568 -0.099249 0.31526 -0.44465 0.087281 0.3288 -0.017809 -0.23855 -0.12848 0.041509 0.46728 0.48214 0.10548 0.065805 0.067221 0.13321 -0.27856 0.015532 0.30026 0.38748 -0.14401 -0.16131 0.17678 0.16448 -0.3244 0.007937 -2.2836 0.096945 0.66131 0.16857 -0.028877 -0.10791 -0.027445 -0.25695 0.046686 0.23087 -0.076458 0.27127 0.25185 0.054947 -0.36673 -0.38603 0.3029 0.015747 0.34036 0.47841 0.068617 0.18351 -0.29183 -0.046533
to -0.25756 -0.057132 -0.6719 -0.38082 -0.36421 -0.082155 -0.010955 -0.082047 0.46056 -1.8477 -0.11258 -0.12955 0.27254 0.0072891 0.26038 0.12096 -0.23193 0.03226 -0.29472 -0.67594 -0.33844 -0.23297 0.1102 0.18816 -0.45184 -0.33833 0.11274 0.4949 -0.042132 0.079961 -0.013146 0.062284 0.20223 0.038279 -1.1154 -0.1214 0.089846 0.29702 -0.055794 -0.46021 -0.13194 0.087357 -0.27865 0.14981 0.25536 0.16698 -0.04452 0.067588 -0.11772 -0.13452 0.28694 -0.39844 -0.12806 -0.47818 0.067802 0.20353 -0.30677 0.60789 -0.18588 0.11997 -0.040508 -0.06586 0.30621 -0.055824 0.039448 -0.4557 0.21081 0.25889 0.14666 0.3095 0.14343 0.10524 0.15788 0.103 0.32211 -0.27939 -0.17139 0.32202 0.10784 -0.28209 0.12611 -0.23913 -0.089638 -0.39179 -0.26402 0.36796 -0.23691 0.62503 -0.027226 -0.038851 -0.37359 0.045442 -0.17169 -0.54477 -0.091772 -0.32952 -0.25522 0.087106 0.048685 -0.31684 -0.064198 0.044885 -0.49587 0.429 0.36198 -0.14682 0.20122 -0.030038 0.18736 0.31626 0.059023 -0.13473 -0.40664 -0.52983 0.072459 0.082531 -0.32495 -0.006691 0.43564 -0.12976 -0.26293 0.15975 0.25062 -0.064732 -0.30689 0.16084 0.4583 0.38565 0.12612 -0.00080485 0.18055 0.24757 0.5568 0.21701 0.33105 0.11991 0.0027257 -0.10679 -0.16922 0.25277 0.36024 -0.4762 -0.20035 0.38473 -0.71653 -0.13788 -0.12201 -0.16979 -0.29624 -0.010344 0.19216 0.063375 0.30977 -0.19759 0.57419 0.34018 -0.34795 -0.085304 -0.028243 -0.39182 0.23797 -0.092997 0.11981 -0.2368 0.098179 0.083047 0.12652 0.16026 -0.14166 0.14296 -0.12868 0.18181 -0.42337 0.18061 -0.051635 -0.17987 -0.097071 0.0013755 -0.42539 0.56817 0.057432 0.31577 0.18918 0.27639 -0.39906 0.18594 -0.54231 0.61376 0.37921 0.1366 -0.39842 0.58557 0.054558 0.061801 0.32546 -0.19615 -0.034329 -0.013225 0.67854 -0.16672 0.92439 0.11952 0.040351 0.35368 -0.25573 0.26648 -0.020954 0.18535 0.062376 -0.22976 -0.074563 -0.3289 0.28535 0.46959 -0.54324 0.14124 0.19964 0.1541 0.024155 0.144 0.30989 -0.15989 -0.11611 0.09102 -0.50317 -0.33662 0.059168 0.43838 -0.1428 -0.0053718 0.046505 0.21546 0.065006 -0.35175 -0.17137 0.20467 -0.07173 0.40879 0.20295 -0.014211 -0.21898 -0.12831 0.3224 0.17608 -0.60267 0.036737 0.54848 -0.47682 -0.56556 -0.083633 0.032302 -0.25262 0.39481 -0.019623 0.62547 -0.11369 -0.25727 0.073363 0.18437 0.14587 0.32708 -0.52049 0.037555 0.023667 -0.068237 -0.22916 0.017755 -0.18394 0.55107 -0.23965 0.39187 -0.017785 0.43113 0.27181 -0.16043 -0.347 -2.4194 -0.028952 0.95085 0.05804 -0.23623 0.18914 0.31192 0.23064 -0.30309 -0.18603 0.07618 0.37337 -0.14444 -0.028793 -0.012806 -0.59707 0.31734 -0.25267 0.54384 0.063007 -0.049795 -0.16043 0.046744 -0.070621
and 0.038466 -0.039792 0.082747 -0.38923 -0.21431 0.1702 -0.025657 0.09578 0.2386 -1.6342 0.14332 -0.037958 -0.019583 0.38494 0.097319 0.29697 -0.34523 0.11742 -0.024189 0.16013 0.09824 0.12811 -0.17482 0.20976 -0.22362 -0.20656 0.24428 0.066875 -0.12594 -0.015706 0.064986 0.4754 -0.055405 0.54286 -0.75188 -0.083218 0.17896 0.073084 -0.3033 -0.17416 -0.17147 -0.1192 0.038308 -0.2066 0.088679 -0.055993 0.361 0.38658 -0.055434 0.097699 0.3686 -0.326 0.13023 -0.29897 -0.24709 0.051869 0.030422 0.18586 -0.046117 -0.14765 0.35895 0.10094 -0.087822 -0.17514 -0.25403 -0.35855 0.15801 -0.027074 0.12565 -0.17509 -0.13126 -0.13916 0.053628 -0.049429 0.051938 -0.048684 0.071719 0.080952 -0.20018 -0.10871 -0.26707 -0.35727 0.3712 0.016709 -0.034959 -0.047711 0.0024827 0.10847 0.0089053 -0.14874 0.046014 0.42702 -0.24684 0.12193 -0.27579 0.25844 -0.20991 -0.086667 0.14767 -0.17441 0.17054 -0.30868 -0.08797 -0.17195 -0.11743 0.12146 0.069268 0.13311 -0.13565 -0.24855 -0.0026393 -0.71169 -0.32594 -0.36397 0.053331 0.35714 -0.30035 0.041583 -0.11996 -0.02368 0.016728 0.15869 -0.16491 -0.2782 -0.13788 0.10178 -0.24177 0.096347 0.2367 0.20885 -0.28867 0.10772 0.15562 -0.012284 -0.22161 -0.1017 0.1257 -0.29579 -0.0089604 0.35075 0.020088 0.020389 0.0038884 0.31869 -0.19848 0.060458 0.28148 -0.23499 -0.17035 -0.22323 0.57975 0.26464 -0.10124 0.081058 0.14029 0.066431 -0.12212 0.040034 0.027548 -0.1476 0.31438 -0.23046 0.2645 -0.10945 -0.39033 0.1266 -0.030951 0.067389 0.16807 0.22373 0.13502 0.38235 -0.52807 0.54013 -0.043062 0.093211 0.045211 -0.24291 -0.49781 0.26425 0.0264 0.14347 0.11763 -0.011614 0.097932 -0.26632 -0.22143 0.25156 0.08128 0.10937 -0.12199 0.019255 -0.33463 -0.18181 0.064724 0.22921 -0.032425 -0.27295 0.31983 0.16134 0.93692 -0.1214 -0.012617 0.25274 0.24615 0.13214 0.16092 0.20576 -0.051567 -0.3784 0.19761 0.16993 -0.087151 0.026922 0.38035 0.083349 0.24715 -0.1094 0.15459 -0.051741 0.16604 -0.21335 -0.030744 -0.14574 -0.50462 0.34825 -0.12343 0.17733 0.2857 -0.30467 -0.15095 0.30346 -0.15678 0.064804 -0.073008 0.26499 0.16312 0.11889 -0.63938 0.15598 -0.23643 0.59644 0.38748 0.3358 -0.58647 0.12584 0.36144 -0.33622 0.38128 -0.10348 0.18825 -0.33686 0.0058178 -0.1345 0.55511 -0.056443 0.15094 -0.28438 0.025488 0.20392 0.052712 -0.45719 0.089267 0.095469 -0.19022 -0.17101 -0.37599 -0.182 -0.065605 -0.061388 -0.19467 -0.070368 -0.23977 0.39253 -0.21283 0.17221 -1.867 -0.22609 0.53976 -0.3358 -0.48587 -0.050246 0.31694 -0.15536 0.12244 0.38356 -0.1389 0.41886 0.23664 -0.31113 0.045194 -0.20405 -0.21097 -0.11025 0.021766 0.44129 0.32797 -0.33427 0.011807 0.059703
a -0.29712 0.094049 -0.096662 -0.344 -0.18483 -0.12329 -0.11656 -0.099692 0.17265 -1.6386 0.1022 0.034253 -0.24213 0.048212 0.2706 0.35996 -0.40779 0.23785 0.24245 -0.31107 -0.48287 0.26101 0.11878 0.51011 -0.31115 -0.37005 0.11625 -0.42061 -0.034391 0.11809 -0.48955 0.33693 -0.13387 0.34924 -0.837 0.56691 -0.5367 0.38559 -0.28975 0.6247 0.48489 0.36357 0.35868 0.089597 -0.05536 0.11218 0.25683 -0.076713 -0.19422 -0.18243 -0.32841 0.064014 0.051971 0.20494 0.099948 -0.2716 -0.46416 0.10966 0.38606 -0.38436 -0.38772 0.28296 0.62533 -0.21405 -0.3754 -0.57913 -0.1251 -0.17104 0.43539 -0.18758 0.017773 0.35395 0.30074 -0.19863 -0.37743 0.11643 -0.18239 0.021961 -0.37256 0.023748 -0.096721 0.1289 -0.064794 -0.23133 0.45646 0.14918 -0.039145 0.39048 -0.113 -0.031962 0.036758 0.24962 -0.11699 -0.57764 0.57354 -0.14273 0.2503 -0.059743 -0.18562 -0.068998 -0.03661 0.15586 0.19729 -0.33594 -0.16771 0.17228 0.12988 -0.064598 -0.60267 -0.43089 -0.288 0.5353 -0.085713 0.089749 0.93015 0.16516 -0.14327 -0.060793 0.065698 -0.011137 0.24506 0.3287 0.012378 0.34808 0.047224 -0.20778 0.62321 0.14988 0.30187 -0.32872 0.3404 0.22678 -0.53792 -0.11482 0.41729 0.15157 0.15916 -0.12746 0.23922 0.202 -0.20951 0.36117 0.11522 -0.028047 -0.72466 -0.011893 0.031583 0.1739 -0.1262 0.20053 0.33085 -0.26827 0.28153 -0.044422 0.46704 0.049405 -0.46265 -0.27114 0.097589 0.30885 -0.10546 -0.018832 0.18444 -0.015528 0.047652 -0.1205 -0.2874 0.084141 0.53238 0.2009 0.035318 -0.44411 -0.86037 0.2761 -0.16407 -0.23766 -0.53769 -0.046391 0.55086 0.24044 0.31387 0.24542 0.19868 0.27393 -0.24355 -0.4129 -0.46545 0.60012 -0.26015 0.1929 0.36024 0.18589 0.037866 -0.077942 -0.099914 0.034607 -0.12247 -0.27205 -0.13819 0.23319 0.96767 0.34317 0.044022 -0.31471 0.014663 -0.071928 -0.45375 0.029313 -0.22576 0.20704 0.029607 -0.41761 0.2603 0.23784 0.083533 0.12032 -0.19662 -0.2885 -0.25891 0.71359 0.28543 -0.0017777 -0.10196 0.47297 -0.006194 -0.024529 0.11389 0.059219 0.18821 -0.15918 0.19517 0.23143 -0.016216 -0.51149 0.36894 0.55447 0.17006 -0.081063 0.14756 0.43106 0.62111 -0.020083 -0.051027 -0.42335 -0.95094 -0.098285 0.49542 -0.1441 0.18742 -0.1606 -0.073652 0.067304 -0.097287 -0.27716 0.80758 0.20659 -0.34734 -0.17897 0.48319 0.59006 -0.22616 0.28727 0.49545 0.41908 -0.37884 0.023117 -0.11783 0.079173 0.5605 -0.17425 -0.33199 -0.72821 0.10046 0.041775 0.22655 -0.12865 -2.3832 0.2206 0.51407 0.08616 -0.21772 -0.055862 -0.040358 -0.22208 -0.042596 0.037001 -0.50139 0.10573 -0.16145 0.3616 0.075972 -0.42426 -0.3967 0.32683 0.62049 0.34719 0.26952 0.059717 -0.22853 0.29602
for -0.24132 0.12063 0.1919 -0.26692 0.061076 -0.022878 0.58017 -0.22533 -0.20644 -1.6361 0.27715 0.15026 -0.31691 0.38411 0.032003 -0.12901 -0.053065 -0.0055874 0.10467 -0.42931 -0.23605 0.26159 0.070261 0.046544 -0.2076 -0.23013 0.018501 0.25844 0.12839 0.16461 -0.023486 0.20511 0.18169 0.30549 -1.1893 -0.40416 -0.19842 0.14848 0.13756 -0.093425 0.1929 -0.04965 0.038317 -0.29397 -0.079036 -0.10161 0.11877 0.4822 -0.29784 0.21025 0.12835 -0.26482 0.36112 -0.30893 -0.44381 0.18737 -0.21541 0.3949 -0.022203 -0.35489 -0.36777 0.14181 0.41243 -0.71339 -0.073703 -0.33782 0.20737 -0.28501 0.47233 -0.1525 0.065531 0.5353 0.25701 -0.25569 -0.096976 -0.1146 0.18648 0.63131 -0.10587 -0.17148 -0.22473 -0.061003 0.00047845 0.2257 0.045379 0.085725 -0.060717 0.04317 -0.11603 0.25903 -0.30215 0.28587 -0.28818 -0.21763 -0.23948 0.43288 -0.04084 -0.36206 0.022116 0.13942 -0.070819 -0.06265 -0.16719 0.25075 -0.073938 -0.18153 -0.089108 0.12788 -0.50767 -0.30892 0.18676 0.22779 -0.11462 -0.21483 -0.15121 -0.2917 -0.10897 0.22638 -0.074798 -0.15148 -0.13637 0.09204 0.27222 0.19741 -0.062062 -0.27252 -0.15272 -0.10209 0.053098 0.022801 0.1091 0.21148 -0.020907 0.10857 -0.049408 0.11124 -0.17701 -0.00121 -0.14335 -0.096521 0.079911 0.19257 0.34096 0.14215 -0.36738 -0.3207 -0.19761 0.15248 -0.26763 -0.18512 0.43069 0.1615 0.025156 -0.18902 0.25434 -0.49355 -0.51217 -0.13753 0.22434 -0.17512 -0.073847 -0.26023 0.26365 0.13591 -0.17958 0.56764 -0.17501 -0.094047 0.099351 0.18683 0.22519 -0.29088 -0.79464 0.21899 0.071638 0.18663 -0.27274 0.10228 -0.78778 0.6706 -0.043824 -0.099652 0.66548 -0.12354 -0.49125 0.03952 -0.16488 -0.02025 -0.32289 0.083526 -0.14496 0.32379 -0.23525 -0.24786 -0.028118 -0.090129 0.2281 0.10043 0.1415 -0.034989 0.89417 0.1307 0.059509 0.1498 0.20001 0.16255 0.029 0.17797 0.059021 -0.095148 0.20483 -0.092795 -0.049022 0.38437 0.16782 0.39579 -0.6248 0.31983 -0.10613 0.053248 0.28483 -0.26865 -0.63264 0.32117 -0.15954 -0.23866 0.05619 -0.084656 0.014805 -0.15208 0.19622 0.083831 0.18074 0.196 0.57978 -0.072943 0.4357 0.52403 0.10477 0.54837 -0.66689 0.51188 0.22309 -0.017447 -0.71843 0.078075 0.49534 0.055915 0.137 -0.062998 -0.16348 0.52879 -0.15893 -0.19031 0.28423 -0.23602 -0.18803 -0.34223 0.095075 0.050825 -0.33548 -0.64552 0.16552 0.19078 -0.020446 0.56518 -0.15641 0.38419 0.10524 0.24834 0.169 -0.22751 0.27999 0.027417 0.14738 0.32636 -2.7652 0.28688 0.42632 0.02507 -0.6626 -0.35313 -0.16386 0.54448 -0.054815 0.54757 0.0065762 0.27822 0.18534 0.062874 -0.31926 -0.17975 0.22093 0.22999 0.18652 0.21208 -0.14143 -0.063158 -0.32837 0.15507
is -0.1749 0.22956 0.24924 -0.20512 -0.12294 0.021297 -0.23815 0.13737 -0.08913 -2.0607 0.35843 -0.20365 -0.015518 0.25628 0.22963 0.0011985 -0.89833 0.13609 0.18861 -0.33359 0.018397 0.62946 -0.13167 0.64819 -0.2175 0.093853 -0.03905 -0.50846 -0.2554 0.32361 0.23231 0.49105 -0.41841 0.073934 -0.65639 0.48608 -0.11219 -0.29994 -0.72501 0.085377 -0.050447 0.23105 -0.064843 0.0039056 0.099742 -0.020334 0.38845 0.24464 -0.086308 -0.11308 0.019281 -0.11205 0.065642 0.1812 -0.10949 0.055968 -0.197 0.49184 0.61818 -0.03319 0.073289 -0.022823 0.66946 0.18233 -0.40082 -0.33717 -0.28521 -0.28222 -0.044373 0.14881 -0.42135 0.051545 0.27605 -0.19959 -0.29766 -0.087712 0.4621 0.16891 -0.19415 0.28327 -0.25327 -0.063275 0.090945 -0.18623 0.28891 0.043534 -0.10303 0.39545 0.088457 0.054829 -0.45487 0.38226 0.15458 -0.42001 0.20908 0.0010261 -0.37166 0.28856 -0.0072666 -0.23869 0.18698 0.21457 0.0024625 -0.22166 -0.10549 0.26366 0.63795 -0.21856 -0.02476 0.26296 -0.10332 -0.2183 -0.39545 -0.2069 0.5254 -0.24287 -0.12601 -0.1683 -0.1337 -0.17463 -0.24256 0.16015 -0.25534 -0.028585 0.24915 -0.45177 0.77189 0.037554 0.15222 -0.059098 0.096185 -0.0036737 0.23823 -0.21157 -0.10788 0.10368 0.069922 0.078669 -0.017694 0.14711 -0.1157 0.3188 -0.16336 -0.016621 -0.33311 -0.57466 0.15262 0.037973 -0.3337 0.29795 0.27213 -0.47173 -0.0049383 0.15796 0.42384 -0.018251 0.22948 -0.02412 -0.13726 0.42183 0.25098 -0.24748 0.024097 -0.23881 -0.045085 -0.11757 0.024051 0.072332 0.0023528 0.04958 0.32707 0.13398 -0.86314 0.16043 -0.014522 0.17027 -0.53185 -0.44085 -0.11198 0.16672 -0.1007 -0.13035 0.035605 -0.015818 0.1897 -0.35454 -0.12724 -0.28169 -0.12438 0.45235 0.13082 0.47829 0.11159 0.20746 -0.55962 -0.018372 -0.10443 -0.45267 0.098301 -0.28683 1.2324 -0.0077764 -0.1972 -0.35824 0.098736 0.010953 -0.023358 -0.26791 -0.082025 -0.21353 0.050866 -0.5375 0.20151 -0.10377 0.19563 0.31699 -0.27754 -0.08434 -0.47337 0.16286 -0.049013 -0.054793 -0.079239 -0.010989 0.52198 -0.14411 0.045905 0.32172 -0.039952 -0.19748 0.35732 -0.083146 0.30254 0.45123 -0.0075578 0.14041 -0.073527 -0.0002206 -0.17764 0.35673 0.23883 0.15452 0.5127 -0.12761 -0.8158 0.079303 0.46277 0.25961 0.34596 -0.41715 0.082716 0.14205 -0.57492 -0.076417 -0.089484 -0.097053 -0.32071 -0.34892 0.24133 -0.29925 -0.091908 0.20075 0.33906 0.2012 -0.40629 0.027334 0.30098 0.099071 0.63656 0.050048 -0.19518 -0.41454 -0.16104 0.20477 -0.14608 0.36813 -1.7321 -0.29467 0.53281 0.14033 0.11016 -0.14307 -0.33054 0.096295 -0.30065 0.0887 -0.33432 0.25402 0.1337 0.28222 0.31357 -0.13407 0.18465 0.23426 0.076272 0.10502 0.21521 -0.24131 -0.40402 0.054744
with -0.50425 0.31073 0.1428 -0.49815 -0.48062 0.046086 -0.4367 -0.2047 0.60727 -1.4841 0.18406 0.13658 -0.55706 0.21308 -0.078474 0.17986 -0.21076 0.28402 -0.23768 -0.079457 -0.34084 -0.15679 0.24787 0.17767 -0.10513 -0.11733 0.28637 0.00069728 -0.27436 -0.1178 -0.035483 0.16504 -0.060951 0.45712 -1.0232 -0.31636 -0.18316 -0.12902 0.017236 0.078239 -0.043684 0.006083 0.055904 -0.15209 0.36043 0.38787 0.11663 0.30253 -0.14993 0.046246 0.12645 -0.097379 -0.055758 0.013977 0.16254 0.079648 -0.13653 0.4208 0.32229 -0.086639 0.41078 -0.22772 0.13508 -0.16501 -0.092752 -0.30608 0.16828 0.1012 0.22314 -0.073602 -0.10437 0.048738 -0.017337 0.322 -0.24678 0.11937 0.20316 0.3155 -0.35358 0.040118 0.13547 0.12252 -0.141 0.14148 0.34178 -0.09911 -0.050285 -0.13262 -0.0053558 -0.27452 -0.05545 0.40733 -0.47851 0.050621 -0.20467 -0.28636 -0.088159 -0.057574 -0.10392 -0.48728 -0.34811 0.063855 0.011071 -0.41127 -0.25818 0.16825 0.467 -0.19987 -0.49671 -0.36456 -0.065765 -0.45327 -0.2299 -0.037196 0.74768 0.005756 -0.81476 0.32475 0.47131 -0.26709 -0.5583 -0.099456 0.23415 0.12299 -0.50688 -0.28213 0.026573 -0.11969 -0.25023 -0.0046001 -0.035697 0.080512 0.077042 0.20817 0.18184 -0.047404 0.12356 0.16409 0.18735 0.36834 -0.15034 0.35515 -0.043497 0.073912 -0.21727 0.24429 0.15656 -0.43379 0.1636 -0.18101 0.58186 -0.058043 0.036068 0.34316 0.25611 0.068941 0.05801 0.13699 0.077206 -0.0062436 0.464 -0.1022 -0.058472 0.19383 -0.059056 0.43927 -0.046884 0.39576 0.065572 0.10308 0.24468 0.0051464 -0.67093 0.062948 0.091564 -0.22453 -0.63027 -0.50616 -0.37829 0.1651 0.54312 0.23679 0.53861 0.056763 -0.19139 -0.37824 -0.059438 -0.0037251 -0.060475 0.018161 -0.1521 0.22743 -0.66182 0.011296 -0.23422 0.013839 -0.049026 0.24425 0.11104 -0.0019173 0.74611 -0.22987 0.28414 0.10927 0.21869 0.02918 -0.15948 0.30102 -0.24625 -0.45545 0.0041354 -0.13119 0.52311 0.09484 0.32809 0.12774 0.2664 0.031831 -0.36174 0.32824 0.69907 -0.4252 0.13377 -0.068563 -0.37317 0.24929 0.023537 0.049957 -0.22989 -0.14998 0.084978 0.014288 0.21495 -0.23156 0.055681 0.27244 -0.09422 0.35368 -0.052623 0.56429 -0.33276 0.11612 0.52414 0.59008 -0.67225 0.20872 -0.049619 -0.1544 0.17582 -0.32253 0.10399 0.0077187 -0.055851 -0.41299 0.58722 0.12799 -0.21887 -0.074941 0.049944 0.45235 -0.1452 -0.32065 0.61359 -0.089471 -0.11961 0.24405 -0.20828 -0.54893 0.0043064 -0.049354 -0.070968 0.044178 -0.014431 0.29241 0.29779 0.30132 -1.6624 -0.23556 0.53168 -0.032046 0.15837 0.26584 0.11235 0.2688 0.19323 0.83389 -0.52801 0.52752 0.11211 -0.2607 -0.24656 -0.4082 -0.39788 -0.19509 0.12998 0.49643 0.28508 -0.44105 -0.0086843 -0.2264
he -0.52057 0.49562 0.032912 -0.060807 -0.099912 -0.29914 0.30376 -0.45652 -0.048426 -1.9277 0.50842 0.13953 -0.13223 0.28102 0.2113 0.40071 -0.27144 -0.28027 0.083412 -0.15827 0.43245 0.42078 0.16122 -0.047795 -0.84823 -0.099784 -0.058959 0.021567 -0.077084 0.056335 0.047173 0.1745 0.087413 -0.035637 -1.1655 -0.25846 -0.27217 -0.00094525 -0.49971 0.02628 -0.10585 -0.31498 -0.15253 -0.14808 -0.061642 0.3953 0.034826 0.10471 -0.053449 0.53221 -0.083392 -0.056893 0.28576 0.17109 0.050452 0.49518 -0.00022012 0.25101 0.45747 -0.17646 0.090355 0.37709 -0.13566 0.20854 0.058242 -0.62401 -0.044094 -0.2805 0.28493 -0.38905 0.42103 -0.10802 -0.05288 0.38979 -0.22066 -0.14324 0.21146 0.35925 -0.40997 0.30029 -0.021272 0.020047 0.50453 0.33816 -0.19505 0.37736 0.032292 0.18065 -0.018194 0.41292 0.14321 -0.0058425 -0.59785 0.16533 -0.22718 -0.07116 -0.2148 -0.34548 -0.11648 -0.4488 0.12007 0.044501 -0.13835 0.26799 0.1134 0.10466 -0.00028055 0.24367 -0.18974 0.14281 -0.08717 -0.060362 -0.25201 -0.39965 0.093342 -0.1246 -0.07483 -0.43488 -0.12148 -0.45033 -0.10377 0.26888 -0.12715 -0.17905 -0.018454 -0.2452 -0.039817 0.18409 0.30486 0.036603 0.03644 -0.031441 0.093878 -0.41857 -0.30032 -0.085151 0.20138 -0.0085206 -0.071946 -0.17813 0.3886 0.26182 0.019699 0.30087 -0.30179 0.14592 0.52847 -0.04116 -0.7447 -0.15683 0.0069304 0.26329 -0.185 0.11665 -0.14443 -0.19193 0.11774 -0.11751 0.31865 -0.13635 0.13358 -0.35945 0.044643 -0.014396 0.3071 -0.32731 -0.31154 0.17966 0.14015 0.32742 0.047108 -0.38754 -0.67176 -0.17596 -5.9715e-05 0.3127 0.3098 -0.11991 0.087977 0.62964 0.28274 0.42932 0.043327 0.13565 0.20301 -0.089814 -0.70365 0.55953 0.065305 0.23919 -0.32313 0.26759 0.51738 -0.32511 -0.023361 -0.27475 -0.36893 0.028859 -0.093905 -0.12133 1.4975 0.18704 -0.1071 0.30631 -0.01245 -0.15773 0.13736 0.28178 -0.11288 -0.19496 0.21676 -0.058748 0.058473 -0.19343 0.19818 0.3081 -0.31354 0.06975 0.25632 0.040904 0.33454 0.053747 -0.25078 0.086309 0.11189 -0.0131 -0.36137 -0.25244 0.058225 -0.15446 0.21112 -0.01953 0.13341 -0.30242 -0.36776 -0.17385 0.11935 -0.21225 -0.18904 0.21758 0.20546 -0.1713 0.11921 0.3311 -0.22552 -0.20932 0.094121 -0.20502 -0.16824 0.016597 0.11234 -0.14522 0.00044344 0.08894 0.97376 0.1964 0.095959 -0.061196 0.26555 -0.13197 -0.13693 -0.29071 -0.12344 0.25309 0.034311 -0.25626 -0.061074 -0.01148 -0.311 0.36469 -0.41521 -0.18615 0.010438 0.5086 0.59488 -0.14929 -2.1926 -0.28124 0.54502 0.042098 -0.38904 -0.15156 0.26306 0.3154 0.092405 0.38606 -0.29666 0.50608 -0.19846 -0.11546 -0.15945 0.1609 -0.095613 -0.25536 0.28903 0.023472 0.22259 -0.3506 -0.22204 0.14277
it 0.033284 -0.040754 -0.048377 0.12017 -0.13915 -0.17694 -0.062908 0.17056 0.20077 -2.4287 0.40703 -0.099281 0.072288 0.21508 0.24937 0.25853 -0.66372 0.22472 0.25758 -0.17459 0.35456 0.74112 0.14282 0.2624 -0.63519 -0.113 -0.12607 -0.17486 -0.33581 0.30123 0.030055 0.5042 -0.49208 -0.01979 -0.86798 0.18906 -0.14333 0.12869 -0.24102 -0.15733 0.14114 -0.023983 -0.18256 0.19093 0.3873 0.36151 0.39893 -0.033628 -0.0013357 0.027212 -0.15565 0.049335 -0.0067375 -0.11839 -0.25112 0.077261 0.10928 0.31826 0.30289 -0.10824 0.14565 -0.011714 0.13254 0.02512 -0.085447 -0.58705 0.04526 0.15113 0.20622 -0.010576 0.04156 -0.043666 0.012812 0.56017 0.002437 -0.19418 0.15809 0.238 -0.28004 0.17902 -0.50701 -0.12564 0.22921 0.038399 0.43865 0.21877 -0.12866 0.24962 0.073349 0.24244 -0.33333 0.36894 0.024531 -0.31091 -0.16011 -0.10162 -0.55647 0.16483 -0.18894 -0.29003 0.3575 -0.088686 -0.16001 -0.075006 0.15644 -0.11019 -0.090256 0.044778 -0.13956 0.48925 -0.18615 -0.43215 -0.28625 -0.40695 -0.033083 0.049212 -0.30505 -0.054375 0.32744 -0.38276 -0.23654 -0.33828 0.060812 0.22109 -0.070865 -0.29227 0.27939 0.3404 -0.062571 0.14745 0.4494 0.14379 0.40838 -0.20624 -0.1514 0.11336 -0.018322 -0.062837 -0.057378 0.15515 -0.18452 0.28504 -0.12027 0.042864 -0.75146 -0.54257 0.20493 0.018292 -0.28326 0.13001 -0.26985 -0.059708 0.10544 -0.32074 0.37084 0.27499 -0.01289 0.093589 0.036826 0.087546 0.11627 -0.44689 -0.19197 -0.13519 0.040186 0.057983 0.07941 0.33099 0.18328 0.11349 0.018865 -0.018187 -0.69136 0.2621 0.16679 -0.044771 -0.27263 -0.035347 0.097969 0.11006 0.27094 0.075156 0.32314 -0.10247 0.39139 -0.18149 -0.17153 -0.097689 -0.049381 0.21734 -0.036354 0.26657 0.328 -0.24923 -0.18902 -0.15799 -0.095551 0.11969 0.16522 -0.1467 1.0909 -0.48956 -0.30497 -0.25222 0.010357 0.26115 -0.017184 -0.2164 -0.28018 -0.39493 -0.3061 -0.19881 0.25107 0.23895 0.053286 0.046876 -0.15066 0.18805 -0.2381 0.072075 0.074246 0.10051 -0.48924 0.24402 0.17252 -0.016709 0.3346 -0.037864 0.074991 -0.057255 0.04969 -0.054617 -0.15873 -0.13856 -0.18037 -0.02047 0.093404 -0.10968 0.18737 -0.091064 0.2556 -0.12483 0.50991 -0.031007 -0.66628 -0.046616 0.29607 0.094352 -0.056352 -0.41199 -0.046639 -0.2188 -0.45296 0.0077997 0.27725 -0.17912 -0.14488 -0.2547 0.37993 -0.2445 -0.1902 -0.04553 -0.096199 0.14147 0.035747 0.051315 -0.012186 -0.21784 0.33448 0.0038657 0.17195 -0.19242 -0.16028 0.38035 0.18887 0.11157 -2.2484 -0.4274 0.58428 0.20266 -0.22752 0.081917 0.13578 -0.22877 -0.15087 0.067262 -0.18536 0.17819 -0.10328 0.18844 0.091222 -0.402 0.1543 0.23099 0.086138 -0.0024281 0.065196 -0.15408 0.17806 -0.19683
by 0.073515 0.25736 0.2359 0.19299 -0.29611 0.24525 0.28196 0.17337 0.17596 -1.9064 0.41646 -0.52247 0.28941 -0.14978 -0.045958 0.39363 -0.23868 0.065956 -0.017976 -0.15156 -0.10554 0.09882 0.21012 0.4942 0.44034 0.027245 -0.077807 -0.35717 -0.1256 0.08476 0.50556 0.054257 -0.049079 -0.068589 -0.69315 -0.34462 -0.15513 -0.073613 0.5586 0.24185 -0.31465 0.13847 0.0025406 0.0052615 -0.40145 0.31973 -0.29493 0.38723 0.086896 -0.13209 0.10077 0.013552 -0.040737 0.31749 -2.6474e-05 -0.086115 -0.19889 -0.065909 0.013141 -0.072675 0.24637 0.43593 0.23431 0.086261 -0.37592 -0.66076 -0.012271 -0.15227 -0.098466 -0.26475 0.43849 0.3462 0.28853 0.040032 -0.24846 0.0085505 0.61328 0.039159 -0.19772 -0.14917 -0.11404 0.46025 -0.060377 0.60515 0.3268 7.2101e-05 -0.41491 0.10186 0.60502 -0.10644 -0.0087886 0.19556 0.070595 0.11943 0.092743 -0.36545 0.063256 0.4423 0.28424 0.03232 0.37466 -0.075733 0.23567 -0.84699 -0.33139 -0.040734 -0.19888 -0.34039 -0.023971 -0.063015 -0.00058644 0.2512 -0.13327 -0.037927 0.31385 -0.12567 -0.18847 -0.25316 -0.036028 -0.73398 -0.49541 -0.075148 -0.5534 -0.68447 0.35731 -0.13375 -0.36663 -0.26612 -0.093091 0.086657 -0.1902 0.42224 -0.056448 0.32949 -0.17215 0.10682 0.44173 -0.19415 -0.42698 -0.2524 -0.33396 0.21947 -0.13877 0.10471 -0.19507 -0.057186 0.3158 0.1781 0.43675 -0.5629 1.2033 -0.12076 0.21367 0.14463 0.26866 0.1701 0.1822 0.6998 0.12953 -0.49064 -0.39844 -0.31507 0.44036 0.13683 0.23924 -0.072965 0.15785 0.17379 0.3316 -0.098831 0.38722 -0.087708 -0.83964 0.061454 -0.22821 -0.20698 -0.41644 0.42207 -0.11298 0.57636 0.096123 -0.053306 0.072136 0.016467 -0.50124 -0.20919 -0.78268 -0.15733 0.19663 0.31394 -0.29398 -0.35535 -0.272 -0.27381 -0.15854 -0.26515 0.22173 0.029352 0.27527 -0.28788 0.41057 0.021832 -0.059982 -0.52844 0.096363 -0.063465 -0.68393 0.019234 -0.10542 -0.60288 -0.3536 -0.045796 0.034367 0.015802 0.36933 0.20176 0.52654 0.35583 -0.27888 0.14355 0.52356 -0.46602 -0.2268 -0.33025 0.22143 0.439 0.64856 0.0097532 -0.13655 -0.55993 0.47595 0.44607 -0.35533 -0.024964 -0.30214 -0.35801 0.11952 0.24708 -0.32789 0.039514 -0.34741 0.053936 -0.13111 0.036739 -1.1423 0.27762 -0.0087727 -0.1718 0.12229 0.093731 0.45065 -0.42148 -0.034918 -0.37208 0.69774 -0.48293 0.26336 -0.027733 0.2968 -0.041623 -0.27315 -0.022401 -0.099488 0.17685 -0.15643 -0.1242 -0.4011 0.2362 -0.28566 -0.46947 -0.34107 -0.57982 0.19944 -0.24136 -0.20699 0.52195 -1.8485 -0.56025 0.23756 0.29337 0.0049889 0.14013 -0.33396 -0.13643 -0.13913 0.38038 -0.14755 -0.39899 0.2267 0.034484 0.27171 -0.85545 -0.14255 0.47836 -0.055087 1.0448 0.1562 -0.40107 -0.56824 -0.46862
at -0.36898 0.89703 0.34799 -0.062829 0.18046 -0.30297 0.36079 -0.013702 0.38434 -1.3094 -0.034387 0.44917 0.3595 0.2285 -0.020975 0.52298 -0.010276 0.031896 -0.39106 -0.26092 -0.12071 -0.39632 0.48307 -0.24715 -0.33466 0.82662 0.40893 0.23376 0.14166 0.16645 0.29483 -0.37072 0.086861 0.85512 -0.96862 -0.060721 -0.10459 0.25023 0.1443 -0.044215 0.26425 0.090472 -0.1924 0.53454 -0.19893 0.29252 -0.14821 0.3647 -0.15732 0.35149 -0.088094 -0.51938 0.014036 -0.253 0.043116 0.52396 -0.049139 0.4477 0.42077 -0.099867 0.28466 -0.50907 0.35615 0.18749 0.10728 -0.94786 0.30243 0.09016 0.0275 -0.46412 0.083445 0.051873 0.38449 -0.32305 -0.41284 0.12662 0.075448 -0.23403 -0.225 -0.63415 0.068452 -0.242 -0.15779 0.40198 0.01398 0.21473 0.080972 -0.24846 0.21473 0.1913 0.44364 -0.34204 -0.41926 -0.36012 -0.064189 -0.44009 -0.30557 -0.23704 -0.60487 -0.80597 0.12056 -0.13482 -0.084581 0.31442 0.020139 -0.37096 0.54883 0.40115 -0.13108 0.23612 -0.75966 -0.68541 0.13096 -0.33278 -0.10399 -0.059151 -0.054399 0.30094 -0.14817 -0.1803 -0.80154 0.028031 0.13747 -0.08332 -0.62372 0.0050644 0.041693 0.051753 0.12868 -0.090503 0.18826 0.23278 0.1448 -0.17176 -0.89621 -0.31087 0.27205 0.09358 0.38752 0.58611 -0.21142 -0.24285 0.18183 0.045134 -0.29076 -0.22093 0.22947 -0.36386 -0.19905 0.28131 0.57719 -0.18532 0.088198 -0.41232 0.10831 -0.034759 0.049272 -0.1429 -0.22444 -0.07402 0.1195 -0.16175 -0.24432 -0.30433 -0.02257 0.2643 -0.39734 -0.40645 0.55845 0.040802 0.057204 -0.20152 0.19397 -0.35354 -0.30364 0.2892 0.24984 -0.14747 -0.1503 0.51406 0.19113 0.26175 0.074331 -0.344 0.76389 0.13674 -0.29977 -0.30743 -0.086823 0.14204 0.19967 0.1175 0.1893 -0.51309 -0.26945 -0.24101 0.19673 -0.57289 -0.037942 -0.32936 1.2201 0.053738 -0.14808 -0.3089 0.10369 0.23965 -0.07021 0.11557 -0.076919 -0.73347 0.40517 -0.034934 0.28078 -0.018267 -0.22082 0.30758 0.0039613 0.15186 -0.29581 0.46255 0.45045 -0.061989 -0.0034168 0.19992 -0.85036 -0.27323 -0.085744 -0.19099 -0.23377 0.2781 0.72788 -0.017063 0.25973 -0.42443 0.47659 -0.098488 0.30542 0.35615 0.23935 0.77525 -0.76448 0.41737 0.42735 -0.071282 -0.62078 -0.34451 -0.18773 -0.32441 -0.27686 0.13415 0.36958 0.38632 -0.45414 -0.090775 0.26914 -0.030115 -0.48913 -0.51441 -0.30659 -0.029388 0.24909 -0.30728 0.070761 -0.22533 -0.038602 0.18488 0.67662 0.6891 0.15932 0.044091 -0.72046 -0.56721 0.30884 0.016838 -0.0073805 -0.26673 -2.0087 0.040844 0.14903 0.25294 -0.5787 -0.24225 0.40704 -0.84739 -0.075729 0.32128 -0.59618 -0.013321 -0.29407 -0.3433 -0.27595 -0.61138 -0.58463 -0.12572 0.42321 -0.011227 0.39072 -0.39875 -0.82992 0.1757
his -0.2213 0.47139 -0.16658 -0.26128 0.040058 -0.10527 -0.19598 -0.57234 -0.13653 -1.7215 -0.018263 0.23354 -0.36565 0.1098 -0.27701 0.49246 0.54211 -0.15181 0.018782 0.086547 0.55769 -0.0024824 -0.29013 -0.040284 -0.40963 -0.092799 -0.080224 0.36159 0.060064 -0.106 -0.080216 0.53184 0.22338 0.15476 -1.205 -0.017443 -0.094538 0.016148 -0.41386 -0.21422 0.051651 -0.012355 -0.21189 -0.29847 0.16757 0.61175 -0.14491 0.40019 -0.20456 0.21928 0.077265 -0.37739 0.45794 0.21443 0.28428 0.16344 0.045457 0.29553 0.17015 0.21999 0.19723 0.25197 0.10168 0.2852 0.37435 -0.58184 0.045155 -0.27768 0.39901 -0.24799 0.27427 -0.2072 0.4194 0.45308 0.14303 -0.22638 -0.095848 -0.14076 -0.12073 0.27356 0.17082 0.68591 0.29674 0.28893 -0.21603 0.51241 0.22192 -0.27727 0.1206 0.47677 0.30159 -0.3614 -0.1435 0.17863 -0.29037 -0.40915 -0.23138 -0.27828 0.11865 -0.60553 0.094837 0.36624 0.040976 0.44172 -0.19131 -0.42128 0.31432 0.1402 -0.1213 -0.28229 0.062229 0.3783 -0.33823 0.089155 0.027071 -0.11464 -0.25505 -0.36392 0.15146 -0.88887 -0.2818 0.22235 -0.25392 -0.40368 -0.17759 -0.12887 -0.1656 -0.43714 0.29808 0.20275 0.037157 0.57936 -0.16299 -0.39357 0.051573 0.12042 0.52993 -0.39288 0.11527 -0.13188 0.20043 -0.11928 0.3933 0.21335 0.16984 -0.080154 0.17308 -0.061698 -0.25167 -0.14719 0.54393 0.38888 -0.25854 -4.6027e-05 0.19491 -0.0037407 0.14562 0.2173 0.64203 -0.079215 0.51274 -0.21802 0.34531 0.26813 0.19551 -0.25452 -0.47316 0.29039 -0.015382 0.14249 0.12099 -0.042382 -1.4255 -0.4178 -0.19689 0.011389 0.49511 -0.18794 -0.10136 0.21753 0.27435 0.38767 0.20423 0.67544 -0.44479 0.083543 -0.2111 0.40332 -0.10809 -0.07566 -0.65472 -0.21822 -0.060406 0.052797 -0.2701 -0.10545 -0.15388 -0.056759 0.10153 0.079783 1.8263 -0.11921 0.17565 0.10295 -0.047975 -0.16459 -0.20348 0.47451 -0.58501 0.25983 0.19739 -0.4328 0.061747 -0.36145 0.14004 0.32448 -0.07944 -0.4057 0.41974 -0.081236 0.21109 -0.11444 -0.47577 0.51746 0.00032126 0.24464 -0.1818 -0.064087 -0.46032 -0.25074 -0.092272 0.089579 0.0040906 -0.11888 -0.0039678 -0.33758 -0.010193 -0.12208 -0.4416 0.27615 0.33236 -0.21957 0.24039 0.045216 -0.60328 -0.022037 -0.0087199 0.0014916 -0.18873 -0.17502 -0.064006 -0.019631 0.6953 -0.38415 1.1696 0.54587 0.028077 0.32881 -0.016116 0.018551 0.084509 0.098671 0.079963 0.081545 -0.37293 0.096336 -0.12582 -0.28495 -0.42377 0.068018 -0.44528 -0.14696 0.33563 0.089209 0.28869 -0.70888 -2.1474 -0.16641 0.72881 0.053781 0.03923 0.077087 0.24176 0.77022 -0.15991 0.29885 -0.19579 0.48032 0.08313 0.27225 -0.41238 0.20006 0.061018 -0.40715 0.085916 0.53363 0.32146 -0.40441 -0.68777 0.039246
be -0.33848 0.42841 -0.10284 -0.22054 0.051708 0.2719 0.31281 0.20978 0.0084592 -2.3119 0.45144 -0.35939 -0.01644 0.047156 -0.067324 0.22372 -0.38468 -0.2019 -0.010325 -0.40823 -0.10644 0.23291 0.33886 0.22666 -0.24456 0.48143 -0.09626 -0.44941 0.066729 0.44467 0.15931 0.19117 -0.085955 -0.092113 -0.88689 0.33921 -0.053696 -0.1144 0.22963 0.44101 -0.28161 -0.31947 -0.30098 -0.023339 -0.063474 0.090641 -0.10606 0.5414 -0.16459 0.064917 -0.27084 -0.53613 -0.10922 0.04508 -0.2645 0.25452 0.10727 0.21099 0.19894 0.097039 0.39847 0.10991 0.28031 0.42407 -0.28221 -0.32951 0.16183 -0.10004 -0.059616 0.17706 0.053394 0.074369 0.16827 0.011442 0.14876 0.14044 0.38686 0.54123 -0.0059714 0.048241 -0.43039 0.19347 0.061762 0.0094268 0.101 0.0029781 -0.56438 0.48098 0.1504 0.35381 -0.68698 0.16467 -0.11646 -0.23395 -0.063406 0.036967 -0.24298 0.60041 0.062109 -0.27859 0.18592 -0.057951 -0.038526 -0.1262 0.10367 0.59447 0.45513 -0.062174 -0.23044 0.18346 -0.12278 0.057468 0.087813 -0.24159 -0.0018613 0.0255 0.0081536 -0.34478 0.17243 -0.36537 -0.1774 -0.13405 -0.17202 0.13403 0.19743 0.27341 0.28418 0.1463 0.057407 -0.1315 0.37919 0.31672 0.19968 0.03286 -0.70303 -0.19269 0.10061 -0.25926 -0.061527 -0.027685 -0.46275 0.38796 0.0098642 0.16623 -0.26758 -0.60542 0.17847 0.28624 -0.27834 -0.074837 0.13255 -0.37416 0.0029498 0.034679 0.29933 0.028648 -0.040058 0.033505 0.060111 0.28134 -0.40212 -0.0073653 -0.092899 0.10035 0.36414 -0.034356 0.31148 -0.006312 0.36223 0.087269 0.60545 0.1195 -0.64719 -0.17307 0.18247 -0.30426 0.049073 0.48278 0.24135 0.3583 0.29593 -0.063848 0.28228 0.10053 -0.0583 -0.12465 -0.46264 0.084624 0.15165 0.14804 -0.093153 0.11863 0.36008 -0.027707 0.027688 -0.54032 -0.18229 -0.0015304 0.12724 -0.62448 0.649 -0.10991 -0.21948 -0.30134 0.28294 0.028625 0.051557 0.16797 -0.044428 -0.39289 0.27781 -0.40503 -0.068072 0.068473 0.086279 0.18722 0.34251 0.34764 0.17447 0.35813 0.32446 -0.10169 -0.26479 -0.15992 0.27358 0.013012 0.65044 0.027565 -0.16642 -0.37635 0.08533 0.028131 0.12255 -0.46118 0.1104 0.34047 0.10228 -0.25737 -0.36978 0.38316 -0.21421 0.010728 0.36857 0.091779 -0.75119 0.27493 0.59626 0.098785 0.43447 0.27232 0.23783 -0.13661 -0.81214 -0.071247 0.084614 -0.11309 -0.028879 -0.51171 0.23475 0.13326 -0.11293 -0.2124 0.112 0.32301 -0.28696 -0.12848 0.30481 0.30514 0.15682 -0.099151 0.15555 -0.45747 0.45656 0.12359 -0.12549 0.40679 -2.6328 -0.29552 0.2949 -0.21118 -0.27963 0.12273 -0.14475 0.18582 -0.18327 0.10545 0.23398 -0.19541 -0.54961 -0.43048 0.17344 -0.40223 0.36024 0.28241 -0.041343 0.1102 0.04933 -0.79888 -0.41967 -0.14039
has -0.2106 0.22677 0.063678 0.088348 0.2588 -0.40575 -0.10486 -0.30947 0.041187 -2.2853 0.60125 -0.16082 -0.18174 0.21419 0.0029396 0.020125 -0.5721 0.050103 -0.21793 -0.34376 0.14889 0.57784 0.030892 -0.0021299 -0.61666 0.32883 -0.21257 -0.2838 -0.35888 0.59322 0.38418 0.29557 -0.31796 0.024955 -0.81208 -0.38066 0.047827 -0.12366 -0.18723 -0.32095 -0.09594 0.090589 -0.29474 0.15355 -0.24851 0.21689 -0.12933 -0.106 -0.034553 0.40078 0.062811 -0.24844 0.22459 0.53936 0.086314 0.07158 0.34063 0.24631 0.39524 -0.47746 -0.06746 0.59057 0.16613 -0.23583 -0.23976 -0.65434 -0.018386 0.46059 -0.095901 -0.26386 0.19306 -0.042219 0.61296 0.21361 0.18411 0.16638 0.22685 -0.0083407 -0.41648 0.34828 -0.28923 -0.0016158 0.29791 -0.11413 0.51391 0.40765 -0.1266 -0.044048 0.15813 -0.1006 -0.2947 0.19506 -0.33801 0.1353 -0.062699 0.084814 0.014408 0.25093 0.22889 -0.20638 0.025294 0.082817 0.094692 -0.1958 -0.091211 0.22497 0.28167 0.38739 -0.1634 0.062955 -0.036408 -0.49384 -0.19122 -0.036903 -0.1111 0.0081865 -0.70411 -0.099241 -0.3291 -0.50453 0.27363 -0.17084 -0.040934 0.21319 0.19105 0.19695 -0.53564 0.062473 -0.12354 0.57021 -0.12951 -0.19306 -0.09439 0.2347 0.15689 0.14131 0.10629 0.19055 -0.10327 0.12428 -0.11154 0.33693 0.038657 0.21937 -0.25754 -0.035443 0.23268 -0.15464 -0.23743 0.088261 0.33149 -0.15875 0.098489 0.29267 0.10362 0.11547 -0.10228 -0.26034 0.021078 0.23165 0.5584 -0.43582 -0.1129 0.66121 -0.049008 -0.15884 -0.036099 0.041898 0.077708 -0.20798 -0.18643 0.0096922 -0.7884 -0.08432 0.10025 0.2657 -0.33316 -0.20085 0.14278 0.35613 -0.44712 0.57987 0.012634 -0.15298 -0.15484 -0.28733 -0.36166 0.24557 0.033508 0.192 -0.35354 -0.24316 -0.15635 -0.17902 -0.071741 0.096558 0.12325 0.38002 0.24247 0.11769 1.1233 -0.20288 0.14991 0.1409 0.025071 -0.11278 -0.18235 0.19857 -0.023968 0.52634 0.25858 0.017816 0.37253 -0.22756 0.44619 -0.064693 -0.4758 0.022713 0.039415 0.051063 0.4933 0.1034 -0.16073 -0.19719 0.47018 -0.01928 0.027327 -0.20935 -0.2094 -0.057562 0.031017 -0.18682 0.01864 0.16256 -0.1778 0.16659 0.4116 0.038211 -0.20238 -0.18643 0.31821 -0.084869 0.1404 -0.16418 -0.75165 -0.073414 0.19718 0.14167 0.074781 0.063042 -0.12082 -0.18177 -0.03774 0.10396 0.58422 -0.33321 -0.20441 -0.22102 0.05898 -0.18126 -0.37217 0.47085 -0.12479 0.24383 -0.51154 0.42374 0.10401 0.16119 0.15148 -0.071988 -0.22003 0.29836 -0.21832 -0.17136 0.44735 0.044867 -1.8797 -0.42603 0.48993 0.24733 -0.34514 -0.087237 -0.016735 0.18951 -0.17261 -0.070971 -0.42815 0.33251 0.16208 0.17951 -0.032843 0.1367 0.060401 0.37244 0.054906 0.64155 0.22033 -0.61045 -0.20693 -0.10133
are -0.23589 0.3831 0.10834 -0.063118 0.031596 0.47919 -0.022569 0.76709 0.25337 -1.7607 0.22193 -0.29095 -0.074502 0.35412 0.15508 -0.15028 -0.53825 -0.00541 0.1447 -0.28432 -0.11001 0.32802 0.43443 0.35099 -0.12815 0.35009 -0.021786 -0.31796 -0.086284 0.46415 0.29919 0.59077 -0.5224 -0.30329 -0.84863 0.14022 0.089278 -0.15098 -0.022538 0.057092 -0.36036 -0.048451 -0.11903 0.19829 -0.038005 -0.065528 0.16941 0.31419 -0.044873 -0.06892 0.035291 -0.53412 0.22563 -0.14861 -0.035953 0.32099 -0.15396 0.40714 0.016878 0.36266 0.24424 -0.092926 0.60703 0.62303 -0.066974 -0.26722 0.28154 0.12018 -0.46544 0.12319 -0.19115 -0.10464 -0.0039647 -0.027247 0.026907 -0.027226 0.3928 0.34827 0.068192 -0.21825 -0.25883 -0.16072 0.10265 -0.099584 -0.043757 0.20783 -0.1404 0.18227 -0.010645 0.42071 -0.23216 0.64903 -0.096387 0.038653 0.051364 0.55067 -0.45396 0.42084 0.069118 -0.20421 0.35612 -0.16179 0.065361 -0.26394 -0.81736 0.25345 0.50956 -0.21468 -0.27021 0.10766 -0.27201 -0.5689 -0.14261 -0.35667 0.12876 0.27748 -0.3883 0.11553 -0.029479 0.057487 -0.068723 -0.34848 -0.20724 0.3276 -0.021177 0.2439 0.091965 -0.0011454 0.20234 -0.3962 -0.36262 -0.0019253 0.026191 0.23033 -0.40152 -0.35308 0.23717 0.051574 -0.0051968 0.10298 -0.28419 0.31852 -0.11767 0.20272 0.090399 -0.053257 0.048866 -0.04768 0.33566 0.098481 0.11645 -0.47265 -0.22297 0.22167 0.1693 -0.14103 -0.21233 -0.23463 0.13044 0.017784 -0.0048099 0.13232 0.052457 -0.22741 0.016529 0.46574 0.23264 -0.23079 -0.20518 0.0044659 0.40141 0.16414 -0.76894 0.35441 0.048588 -0.058888 -0.29774 0.20988 -0.30957 0.66625 -0.09967 -0.45606 0.28573 -0.0067435 0.042587 -0.15432 -0.1073 -0.30226 0.59625 -0.248 0.2678 0.1805 0.199 0.1674 0.058236 -0.19015 -0.085125 -0.42967 0.093737 -0.38572 0.34392 -0.0010151 -0.4314 -0.3189 0.44085 -0.25565 -0.077518 0.03558 -0.0043784 -0.7541 0.56524 0.0164 0.24683 0.057251 0.3694 0.17297 0.59185 0.26837 -0.21981 0.14351 0.43901 -0.28796 0.25015 -0.42952 0.16995 0.071226 0.088434 0.43297 -0.43715 -0.35857 -0.095357 -0.21766 0.36788 -0.072162 0.17228 0.44464 0.018139 0.21426 -0.70453 0.43444 -0.28846 0.47258 0.67697 0.46644 -0.99729 -0.21072 0.44665 0.43249 0.4353 0.49677 0.29123 -0.26873 -0.30327 0.11383 -0.27214 -0.035139 0.076457 -0.23865 -0.41687 0.087454 0.13362 -0.021917 0.60685 0.012682 0.040642 0.051966 -0.29938 -0.19071 0.21893 0.33879 0.25367 0.027618 -0.13396 0.33192 -0.26319 0.60059 -2.575 -0.075961 0.27487 0.012565 0.19339 0.052633 -0.15258 0.43323 -0.5283 0.18374 0.042201 0.4525 0.17068 -0.50042 0.089172 -0.48171 0.14821 -0.043882 -0.24315 0.076831 -0.092284 -0.79189 -0.08596 -0.1466
but -0.0093601 0.22789 -0.10275 0.0010893 0.21235 -0.072058 0.12727 0.12465 0.19766 -1.9928 0.2632 0.026763 -0.22417 0.25692 0.14883 0.053247 -0.15217 -0.027059 0.030528 -0.083144 0.15027 0.35123 0.38147 -0.12669 -0.53267 0.0283 0.13941 -0.27543 -0.22266 0.34737 0.17724 0.48166 -0.1538 -0.1426 -1.1158 -0.061697 0.057965 0.059257 0.095402 0.035537 0.21461 -0.020273 0.040761 -0.010186 0.052631 0.13117 0.15777 0.01707 -0.087208 0.25268 0.10264 -0.14904 0.17693 -0.00010061 -0.20949 0.19808 -0.082772 0.038187 0.16946 0.10255 0.20369 0.11244 0.24124 -0.013933 -0.18357 -0.43246 0.52025 0.013146 0.32806 -0.23513 -0.12717 -0.07817 0.10068 0.35882 0.2065 0.076897 0.072923 0.20555 -0.43732 0.31799 -0.057423 0.057313 0.27632 0.32097 0.10126 0.030264 -0.083465 0.14738 0.033931 0.2027 -0.37259 0.26912 -0.35826 -0.087952 -0.11331 0.087556 -0.25428 0.11459 -0.19357 -0.32872 0.071228 -0.31914 0.049079 0.0081954 -0.11576 0.22526 0.011577 0.16477 -0.36257 0.22032 -0.30084 -0.087252 -0.085772 -0.26589 0.1811 0.2642 -0.29298 -0.20144 0.26573 -0.16841 -0.17903 -0.13241 0.16053 0.31679 -0.10761 0.057194 0.084732 0.41265 0.020323 0.16469 0.15206 0.35008 0.22884 -0.1644 -0.026389 -0.053243 0.19386 -0.15379 0.057737 -0.040448 -0.017322 0.24881 0.04396 0.213 -0.57143 -0.20114 0.056608 -0.068939 -0.45727 -0.020379 -0.20664 -0.22247 0.0018761 -0.0099785 0.36522 0.063397 -0.081795 -0.27044 0.13856 -0.13544 0.090242 -0.26056 0.117 -0.030935 0.012228 0.030917 -0.24779 0.045054 -0.046491 0.17115 -0.037521 -0.045547 -0.69095 -0.03524 0.091636 0.021909 0.12897 0.043111 0.14914 0.43582 0.22518 0.44787 0.23662 -0.017949 0.11634 -0.064274 -0.14898 0.0497 -0.0061592 0.19643 -0.17633 -0.023501 0.29687 -0.28918 -0.047388 -0.32385 -0.30458 0.19553 0.011845 -0.068452 1.0012 -0.38008 -0.14341 -0.11469 -0.071685 -0.01039 -0.031741 -0.075 -0.082846 -0.39192 -0.043833 -0.12606 0.24978 0.09445 0.18083 0.05975 -0.10239 0.14583 -0.069324 -0.035552 0.51504 -0.18863 -0.1569 -0.030031 -0.13716 0.0605 0.32018 -0.088265 -0.19297 0.010617 -0.10101 -0.072677 0.15932 -0.25269 -0.15539 0.088428 0.19754 0.28453 0.044039 0.22419 0.16892 -0.025615 0.42901 0.17235 -0.71502 -0.08036 0.24908 -0.070221 -0.3014 0.18592 0.031883 -0.21625 -0.27133 0.1474 0.35278 -0.035009 -0.037825 -0.20458 0.081372 0.01787 -0.32235 -0.098158 -0.0067237 0.084369 -0.38033 0.099705 0.071678 -0.32707 0.012206 0.26527 0.19805 0.15367 -0.17508 -0.027626 0.072013 0.2733 -2.2272 -0.1255 0.27699 0.18007 -0.11475 0.3308 0.17493 0.20648 0.020803 0.058123 -0.19525 0.18281 -0.11414 -0.08809 -0.13864 -0.10893 0.33581 0.19718 0.15393 0.052746 -0.044352 -0.51568 -0.035701 0.0074737
not 0.0083903 0.28769 -0.23466 -0.26343 -0.05723 0.28502 0.10119 0.20002 -0.02435 -2.3734 0.14873 0.0023303 -0.22836 0.082005 0.24612 0.13882 -0.065683 -0.24627 0.012062 -0.3102 -0.008126 0.33702 0.61853 -0.087801 -0.34962 0.097387 0.064167 -0.36328 -0.10819 0.11074 0.27759 0.594 -0.036629 -0.53521 -1.0543 -0.063224 -0.057841 0.042026 0.35488 0.22293 -0.1589 -0.094849 -0.12825 0.26653 -0.013043 0.23592 -0.018625 0.29438 -0.17797 0.17288 0.051829 -0.31989 0.11203 -0.082397 -0.061835 0.5638 -0.12197 0.25961 0.1765 0.1573 0.43797 0.014663 0.27652 0.43256 -0.25286 -0.2809 0.59157 -0.12843 0.22344 0.31124 0.25405 -0.10903 0.23563 0.17287 0.072788 0.039777 0.2686 0.6681 -0.34509 0.076461 -0.11093 -0.0092464 0.10407 0.080044 0.11562 -0.055452 -0.43124 0.25935 0.050749 0.24549 -0.86449 0.19253 -0.27081 -0.19815 -0.059485 0.2019 -0.093294 0.28263 -0.13484 -0.28851 0.074523 -0.080275 -0.2756 0.032325 -0.098853 0.43661 0.2103 0.085212 -0.12592 0.29903 -0.26555 0.068403 -0.010025 -0.2421 0.29969 0.3471 -0.42937 -0.30074 0.16097 -0.16229 -0.17247 0.087556 0.30035 0.079885 -0.046575 -0.066808 0.25359 0.40844 0.068411 0.081685 0.29057 0.18363 0.51266 -0.20767 -0.17683 0.15032 0.080769 -0.1334 -0.13474 -0.090399 0.020778 0.24384 0.2608 0.11796 -0.14556 -0.33837 0.013533 0.025232 -0.10694 0.23671 -0.15284 -0.20505 0.16882 -0.039565 0.067559 0.013432 -0.12618 -0.28391 0.32326 -0.16273 0.076871 -0.14777 0.0076579 -0.10586 0.1038 0.25845 -0.10677 0.367 -0.011593 0.13597 0.33921 0.023353 -0.51433 -0.06075 0.063809 -0.1834 0.27084 0.33339 0.22225 0.43098 0.1619 0.18504 0.3942 0.088765 -0.30046 0.23482 -0.22571 0.2151 0.13232 0.1553 -0.080698 0.029592 0.35582 -0.092191 0.10957 -0.37137 0.022432 0.15062 0.29035 -0.27372 0.8685 -0.38553 -0.32109 -0.045019 0.089732 -0.099421 0.17739 0.26876 -0.12646 -0.58945 -0.1554 -0.21913 0.0048001 0.21628 -0.25954 -0.049627 0.11868 0.40419 0.047189 0.06145 0.10713 -0.11356 -0.037351 -0.4104 -0.015776 -0.18283 0.19692 0.098901 -0.21208 -0.18432 0.036379 -0.11904 0.17955 -0.34973 -0.3327 0.083915 0.11528 0.12518 -0.082051 0.096149 0.014648 -0.087497 0.38729 0.035827 -0.6294 0.43413 0.27136 -0.008977 -0.094551 0.05824 0.063323 -0.13797 -0.43484 0.16405 0.39335 -0.11051 -0.14452 -0.22014 0.16555 -0.10479 -0.068364 -0.2696 0.0032207 0.20776 -0.38574 0.09903 0.1494 -0.30019 0.0064217 0.2124 0.28238 0.040273 0.069026 0.093943 -0.032864 0.36117 -2.7186 -0.011105 0.45697 0.040385 0.27305 0.095956 0.04941 0.42489 -0.33798 0.12939 0.081935 0.11641 -0.1253 -0.0065135 -0.093068 -0.43507 0.52599 -0.0089513 0.1358 -0.12886 -0.04175 -0.6641 0.10303 0.1219
they -0.26625 0.47964 -0.38818 0.039296 -0.020338 0.1686 0.31585 0.45174 0.28882 -1.8574 0.1042 -0.39298 -0.23483 0.087225 0.16783 0.17545 0.16778 -0.27102 0.056889 -0.22041 -0.020767 0.22512 0.51684 -0.20107 -0.41418 -0.093061 0.12105 -0.30317 -0.25972 0.26204 0.11659 0.20388 -0.16771 -0.12749 -1.0104 0.10608 -0.14708 0.43219 0.2354 -0.10528 -0.044103 -0.32034 -0.092933 0.20956 0.080815 0.35965 0.045295 0.13698 0.064083 0.11895 0.086607 -0.32393 -0.021992 -0.30357 0.017027 0.45708 -0.013127 0.26219 0.094765 0.13963 0.16302 -0.090915 0.23098 0.48729 -0.14131 -0.47962 0.24063 0.14303 -0.12603 -0.26861 0.15666 0.11863 -0.17795 0.37785 -0.016425 0.07712 0.14022 0.1406 -0.062629 -0.13203 -0.25589 0.057871 0.3396 -0.032114 0.035126 0.159 -0.12384 0.39202 0.078883 0.29796 -0.44131 0.39671 -0.21372 0.021356 -0.1208 0.23718 -0.49342 -0.13932 0.072485 -0.32701 0.31643 -0.17372 -0.20214 0.12638 0.0012871 0.102 0.16934 0.042035 -0.11136 0.30414 -0.049815 -0.30997 0.09559 -0.32313 0.15677 0.43731 -0.30181 -0.24033 0.35022 -0.19427 -0.089117 -0.58989 0.19547 0.2799 -0.17859 0.15756 0.0088832 0.1478 0.15577 -0.11193 0.018819 -0.10861 0.25189 0.099311 -0.25476 0.16634 0.21193 -0.24235 -0.040415 0.16546 -0.1443 0.13002 -0.12345 0.17074 -0.34722 0.048593 0.24775 -0.018459 -0.10089 0.088433 -0.33036 0.026864 0.036099 -0.098284 0.17065 0.090102 -0.23993 -0.34252 0.18927 -0.2196 -0.12159 -0.34413 -0.0067177 -0.032959 0.068675 0.33164 -0.099433 -0.030839 0.18564 0.11523 0.074203 -0.11162 -0.36385 0.15301 0.084523 0.0086754 -0.22075 0.63111 0.044935 0.82095 0.22 0.063324 0.25182 0.16715 -0.062336 0.11698 -0.2203 0.43544 0.67348 0.013789 0.080617 0.085087 0.33098 -0.24329 0.25222 -0.22024 -0.042539 0.26565 0.14581 -0.21546 0.72029 -0.27071 -0.063778 0.28113 0.2988 -0.13017 0.308 0.31928 -0.083157 -0.37102 -0.089416 0.26544 0.079694 0.36569 0.10879 0.062947 0.42146 0.47595 -0.08354 -0.032281 0.42548 -0.042148 -0.026053 -0.19134 -0.23835 0.097171 0.26999 0.046118 -0.12611 -0.17206 -0.097765 -0.025364 -0.10916 -0.55308 -0.17859 0.11427 -0.07081 0.15873 -0.23741 0.02136 0.02376 0.13515 0.68325 0.28773 -0.72484 -0.13002 0.45516 -0.092926 0.17352 0.32383 0.21402 -0.39301 -0.2495 0.34435 0.56643 0.29879 0.16868 -0.041737 -0.11503 0.26914 -0.032305 -0.51355 0.10059 -0.013398 -0.049054 0.0074749 -0.43329 -0.62059 -0.0010929 0.15261 0.15763 0.078986 0.18794 0.19056 -0.019385 0.086288 -2.9523 -0.11787 0.27435 0.080081 -0.33813 0.12535 -0.091461 0.15373 -0.32981 0.19537 0.1114 0.10156 0.073006 -0.25818 0.034971 -0.45354 0.031174 -0.10057 0.068828 -0.10153 -0.0012324 -0.51561 0.010936 -0.0041424
i -0.13292 0.16985 -0.1436 -0.088722 0.07951 -0.14212 -0.024209 -0.26291 -0.074814 -2.36 0.3483 -0.091722 -0.053906 0.30418 -0.13286 0.0050341 -0.15056 0.0023562 0.068321 0.34246 0.39891 0.58813 0.060618 -0.19871 -0.40465 -0.10706 -0.0059312 -0.64842 0.1908 -0.1763 0.092407 0.38685 -0.31085 -0.32574 -1.6823 0.25336 -0.24647 -0.10874 0.0076402 0.3388 -0.059736 -0.8594 -0.080964 -0.22981 0.17709 0.082094 0.74416 0.36873 0.1374 0.29408 0.10647 -0.13246 0.12134 -0.14273 -0.5327 0.64936 0.49657 0.30029 0.67226 0.18005 0.8805 0.038144 -0.08714 0.764 -0.12107 -0.42809 -0.12588 0.00088377 0.10596 -0.30802 0.22887 -0.25468 -0.36484 0.74524 -0.15217 -0.055619 0.12049 0.39876 -0.21991 -0.18444 -0.090398 0.14077 1.2865 -0.4091 0.27999 0.42089 -0.70627 0.79004 0.13804 0.30273 -0.18534 0.18121 -0.71732 -0.54259 -0.0022513 0.30463 -0.49588 -0.17462 0.021335 -0.21341 -0.082391 -0.37676 -0.28001 -0.24238 -0.35249 -0.24116 0.29776 0.37027 -0.17822 0.47537 -0.073484 -0.29747 -0.036304 -0.84941 0.045171 0.28779 -0.17543 -0.27925 -0.099789 -0.13493 -0.078184 -0.35548 0.21692 0.25895 0.2605 -0.43193 0.12076 0.28405 0.15691 0.21351 0.57355 -0.47598 0.045758 0.065907 -0.24157 0.15724 -0.39697 -0.087238 0.011132 0.46365 -0.043082 0.56318 0.52448 0.38723 -0.44893 -0.0036617 -0.14007 0.029963 -0.14168 0.051547 -0.76266 -0.080719 -0.10827 0.020345 -0.14594 0.13781 0.35217 -0.19425 0.47376 -0.2795 -0.083159 -0.61386 -0.3431 -0.099814 -0.024054 0.20529 -0.022244 0.59102 0.17002 0.052526 -0.19144 0.12114 -0.50691 -0.51987 0.05476 0.15022 0.092612 0.34548 0.35603 0.23423 0.13452 0.015486 0.17266 -0.18454 -0.098682 -0.21803 -0.15786 0.70495 0.36798 0.26764 -0.14352 -0.054373 0.43326 -0.16332 0.021658 -0.53408 -0.025548 0.41534 -0.16234 -0.40243 2.0005 -0.13084 0.11824 0.18055 0.31811 0.15508 0.036686 0.30747 0.1952 -0.044309 -0.65875 0.18604 -0.16245 0.040257 -0.53955 -0.012123 -0.0030579 0.017945 0.14503 -0.3564 0.43888 -0.11453 -0.15161 0.24664 0.43432 0.31283 0.42919 -0.12493 -0.11767 -0.00022056 -0.35881 -0.067778 0.21444 -0.79171 -0.11005 0.3094 -0.0030179 0.13354 -0.20436 -0.16333 -0.048577 -0.051513 0.031318 0.36954 -0.047448 -0.076416 -7.8986e-05 -0.072528 -0.084875 -0.14013 0.20147 -0.27516 -0.048958 0.31184 0.71849 0.30594 0.47019 -0.28368 0.10073 -0.41866 0.17655 -0.12393 -0.047247 -0.089221 0.068069 0.014806 -0.28357 -0.25358 0.13204 0.69809 -0.08402 -0.42223 0.55961 0.039954 0.058968 -0.19102 -2.2069 0.081526 0.25289 -0.22367 -0.30142 -0.28467 -0.087759 -0.39672 -0.24318 0.14144 -0.12311 0.0063953 -0.34761 -0.46531 -0.0010615 -0.39291 -0.1778 -0.12175 0.24335 -0.77835 0.39598 -0.23778 0.14766 0.62902
will -0.34572 0.28478 -0.48478 -0.34118 0.054563 0.33098 0.042195 0.34464 0.1886 -1.8824 0.3336 -0.5318 0.034529 -0.43363 0.083939 0.11849 -0.29014 -0.21172 0.18505 -0.21314 -0.001015 0.11075 0.5296 0.09878 -0.084809 0.39467 0.22059 0.13128 -0.10788 -0.018857 0.52098 0.18648 0.22686 0.084602 -1.2403 0.19419 0.095325 -0.20372 0.11084 -0.12766 -0.074432 -0.28599 -0.45666 0.046639 -0.34793 -0.37099 -0.099551 0.17969 -0.24501 -0.21923 -0.016954 -0.52549 -0.26081 -0.28857 -0.37339 0.69121 0.081119 0.50097 -0.13316 0.19309 0.19814 -0.027362 0.21638 0.031534 -0.020811 -0.15933 0.38137 0.16723 -0.21451 0.039483 0.23521 0.18134 0.52653 0.14008 0.45924 0.14501 -0.24169 0.0034635 -0.060888 -0.13302 -0.34794 0.050962 -0.05807 -0.20398 0.02559 -0.011711 -0.62096 0.30268 0.25918 0.17677 -0.69796 -0.035095 0.098542 -0.63899 -0.53252 -0.096994 -0.3558 0.39493 -0.19493 -0.38964 0.25128 -0.1667 -0.57848 -0.11265 0.20438 0.61891 0.61169 -0.21442 -0.14214 -0.00089466 0.29225 -0.69722 -0.24801 -0.25626 -0.16104 0.56227 -0.29083 0.14033 0.26406 -0.18313 -0.13243 -0.03766 -0.041612 0.11816 -0.048287 0.15224 0.33528 0.26364 0.1923 0.09417 0.16301 0.35757 0.25997 0.091419 0.11003 -0.27856 -0.028402 -0.30886 0.033457 0.092004 0.0827 -0.040707 0.14124 0.048586 -0.37605 -0.41797 -0.18665 0.048149 -0.32947 0.092036 0.16316 -0.060828 0.25396 -0.37782 0.84191 0.33469 -0.33164 -0.15647 -0.53773 -0.10414 -0.0074832 0.091787 0.019823 -0.0082832 -0.049449 0.17741 0.43407 0.18462 -0.18396 0.16662 0.3678 0.65212 -0.57253 -0.1573 -0.034917 -0.31014 0.020031 0.24247 0.019379 0.51466 0.086676 0.10851 0.44761 0.18262 -0.067047 0.3133 -0.21146 0.31933 -0.26739 0.17015 -0.36774 0.11938 -0.23274 0.13082 0.25548 0.19265 0.51304 0.23251 0.22558 -0.41405 1.1297 0.12259 -0.13145 0.16728 0.060853 0.092048 -0.1118 0.10162 -0.16755 -0.61364 0.50533 -0.53128 0.22206 -0.054157 -0.095197 0.062779 0.066163 0.27619 -0.024 -0.069838 0.44789 -0.048276 -0.50725 0.30402 -0.087245 -0.10303 0.39655 0.44074 -0.12434 -0.18391 -0.028801 -0.022668 0.53545 -0.11877 0.25534 0.48149 -0.057101 -0.30868 -0.069601 -0.10003 -0.031189 -0.16875 0.46862 -0.13632 -0.49502 0.35054 0.28463 -0.35668 0.011152 0.037399 0.2243 0.059766 -0.1792 0.083817 0.060524 -0.027675 0.021142 -0.36886 0.36423 0.076229 0.45353 -0.25021 0.2871 0.32198 0.1483 -0.39275 0.1241 0.35449 0.17028 -0.37483 0.36045 0.26237 0.46792 0.54676 0.085176 0.19065 -2.5083 -0.23926 0.74784 -0.17991 -0.1571 0.14448 -0.033264 0.57973 -0.091955 -0.067715 0.33212 0.16624 -0.46349 -0.36986 0.069517 -0.13054 0.25475 -0.10094 -0.14497 0.11386 0.0018465 -0.48109 -0.31197 -0.068116
their -0.070601 0.54909 -0.25536 -0.16544 -0.034464 0.29149 -0.12363 0.34808 0.12408 -1.7279 -0.41349 -0.084067 -0.53641 -0.29279 -0.37135 0.2189 0.8354 -0.24757 -0.36524 -0.22994 0.21043 -0.014712 0.098499 0.051976 0.15919 -0.23264 0.090441 0.20846 -0.40015 0.22353 -0.1222 0.21036 -0.17683 0.063299 -1.0478 0.35671 0.041542 0.2111 0.33938 -0.30399 0.1847 -0.1566 -0.25958 0.2206 0.31137 0.62782 -0.14065 0.5007 -0.022381 -0.19604 0.43756 -0.68436 0.0047363 -0.41424 0.012235 0.39119 0.025818 0.37529 -0.33819 0.41185 0.16263 -0.29709 0.17917 0.46534 0.054447 -0.43083 0.27192 0.2332 0.01969 -0.035435 0.10424 0.19199 0.083301 0.28437 0.17116 0.14198 -0.053759 -0.082664 -0.086584 -0.34307 -0.38279 0.47421 0.011812 -0.14341 0.16246 0.028068 -0.024037 -0.43435 0.11098 0.3045 -0.14447 0.073322 0.31422 0.0091572 -0.3666 0.092136 -0.26191 -0.11567 0.2273 -0.45619 0.26002 0.033507 0.052263 0.26763 -0.22056 -0.30973 0.4804 -0.027473 -0.066988 -0.14637 0.13849 -0.077874 -0.36263 0.26712 -0.030957 0.30503 -0.17161 0.040811 0.45083 -0.50095 -0.16938 -0.65329 0.18959 0.2148 -0.27846 0.13523 -0.30031 -0.54133 -0.0033764 -0.044664 -0.042155 0.42557 -0.039441 0.030445 0.023731 0.23132 0.62642 -0.45396 0.18683 0.37768 -0.18018 -0.10435 0.27697 0.15579 0.097352 -0.072159 -0.027024 0.025794 0.30941 0.010399 0.56605 0.0071652 0.037493 -0.10939 0.55758 0.23855 -0.51185 -0.11918 0.32695 -0.28675 0.30796 -0.1226 0.095261 0.25934 -0.13175 0.47696 -0.25607 -0.027806 0.093825 0.06419 0.18151 0.33657 -0.83254 0.18039 -0.15404 -0.0060603 -0.017851 0.41501 -0.22936 0.83862 0.044475 -0.31475 0.36476 0.76597 -0.31391 0.50972 0.1105 0.11772 0.50011 -0.38738 -0.042829 -0.37178 -0.23171 -0.092982 0.085667 -0.10222 0.21787 0.17382 0.32062 0.19902 0.9824 -0.38369 0.29576 0.25519 0.38224 -0.2957 0.0020573 0.45212 -0.42294 0.23334 -0.14611 0.15735 -0.34276 0.39727 0.19671 0.26023 0.68882 0.33568 0.035156 -0.065377 -0.0042639 -0.19463 -0.39884 0.074798 -0.40821 0.23189 0.16564 0.29697 -0.61208 -0.31275 -0.12596 0.20463 -0.2357 -0.27802 0.17185 -0.071157 -0.039038 0.11372 -0.63142 0.27237 0.1031 0.32276 0.81848 0.076937 -1.1878 0.13353 0.26705 0.22373 0.26119 0.17817 -0.078821 -0.082855 0.41561 -0.18358 0.35911 0.47931 0.13407 0.40292 -0.40185 0.43708 0.12666 -0.42838 0.2952 0.078028 -0.16276 0.45003 -0.54136 -0.88741 -0.26226 -0.096191 -0.0058529 0.2193 0.22254 -0.23096 -0.2104 -0.41935 -2.96 0.019678 0.70168 0.1488 -0.066001 0.30888 -0.42697 0.52833 -0.38664 0.1357 0.36059 0.20729 0.38228 0.061662 -0.41118 -0.31089 -0.043807 -0.32402 -0.077072 0.54774 -0.11339 -0.4254 -0.25039 -0.20436
one -0.36756 0.395 -0.27034 -0.14817 -0.026378 0.046775 -0.1475 -0.16531 -0.21718 -1.3651 0.17409 -0.041258 -0.18983 -0.027698 0.35129 0.075574 -0.48529 -0.2029 -0.24064 -0.34818 -0.069321 0.25848 0.2353 0.38841 -0.089905 -0.19092 -0.2644 0.17336 0.060948 -0.19431 -0.095567 0.42853 -0.22473 -0.08247 -1.07 0.2548 0.22012 0.031158 -0.39985 0.34792 0.50164 -0.28793 -0.17248 0.4284 -0.019917 0.19249 0.35003 0.36868 -0.56573 0.41892 -0.060984 -0.39701 0.31582 0.44417 -0.10493 0.30423 -0.31468 0.13605 0.13185 -0.12625 0.10101 0.059113 0.1774 -0.16548 -0.020455 -0.068823 0.18058 0.12985 -0.12285 0.055054 0.026889 0.044222 -0.25879 -0.2627 -0.0080305 0.23602 -0.11367 -0.12144 -0.64308 -0.024457 -0.21188 -0.10995 0.2928 0.3064 0.068729 0.14164 -0.19798 0.0061345 -0.0041185 0.025721 0.12642 0.21559 -0.26869 -0.21109 0.21884 0.1285 -0.35726 -0.063753 0.39225 -0.35189 -0.031629 0.192 0.15175 -0.12253 -0.034476 0.049187 0.11712 -0.08582 -0.41962 0.30088 -0.32633 -0.066465 -0.093612 0.0077631 -0.041633 0.3465 -0.040365 0.021527 -0.11054 -0.090672 -0.21432 -0.0042808 0.12339 0.23074 -0.20124 -0.23277 0.04762 0.21714 0.29265 -0.22293 0.2787 0.13648 -0.11764 -0.075526 -0.25504 0.079875 0.19547 -0.12722 0.0086021 0.2487 -0.13648 0.075012 0.1169 0.25752 -0.59417 -0.18769 0.44106 0.2678 -0.30742 0.30112 0.2558 0.036882 0.19296 -0.05019 0.21377 0.062114 -0.031075 0.067409 0.22588 0.13159 -0.04669 -0.093724 0.11075 0.24834 -0.0043596 0.18664 -0.1246 0.53779 0.16206 -0.093676 0.059829 -0.2689 -0.68282 0.11186 -0.0067054 0.11972 -0.20482 0.13473 -0.080352 0.42051 0.23529 0.17533 0.041213 -0.050223 -0.016939 -0.30262 -0.3138 0.095687 -0.11986 0.26767 0.095543 -0.045546 0.13178 0.1095 0.032629 -0.080736 -0.045156 -0.23638 -0.035903 0.19297 1.3583 -0.25734 0.020663 -0.47726 0.16307 0.26761 -0.10491 0.37787 0.051131 -0.17769 -0.090153 -0.14198 0.32238 -0.24176 0.27532 0.039883 -0.14464 0.15256 0.056068 0.10089 0.052549 0.42962 0.012114 0.31916 0.45047 0.13589 0.23833 -0.35825 -0.25822 0.10507 -0.13622 0.049534 -0.25102 -0.14853 0.23685 0.31297 0.23249 0.17139 0.12396 0.12251 0.076481 0.10832 0.3119 -0.18074 -0.49567 -0.19722 0.16774 0.30688 -0.047092 -0.16946 -0.067508 -0.2062 -0.14486 -0.31918 0.50655 0.071068 -0.018162 -0.12314 0.032932 -0.079923 0.099692 0.014782 0.34205 -0.1526 -0.1413 0.11251 -0.21125 0.078554 0.47031 0.44323 0.12147 -0.15763 0.3322 0.25654 -0.082748 -0.0081277 -2.4503 -0.25828 0.14847 0.34402 -0.03454 -0.016911 -0.19509 -0.16437 -0.045996 0.34409 0.034844 -0.19495 -0.049771 -0.028749 -0.13733 -0.26429 -0.061159 -0.14784 0.18339 0.16137 -0.058419 -0.37252 -0.3899 0.031491
first -0.15561 0.50069 -0.23022 -0.33005 -0.232 0.037689 -0.4624 -0.24275 -0.051588 -1.2913 0.16303 0.083548 0.025712 -0.26523 0.12777 0.19846 -0.298 -0.091233 -0.13194 -0.27237 -0.32974 -0.052975 0.050995 0.38835 0.35641 -0.071349 0.23179 -0.052253 0.015687 0.15179 -0.047197 0.056913 0.15639 0.33157 -1.4201 0.039622 -0.23837 0.076214 0.12823 0.47385 0.12951 0.029293 0.053333 0.36202 -0.019162 0.069366 0.11595 0.19711 -0.54428 0.31474 -0.18014 0.11506 0.23317 0.56368 -0.19619 0.19254 0.00083918 -0.18513 0.19132 0.18517 -0.19123 -0.070016 0.0067502 -0.38365 0.17907 -0.22294 0.17296 -0.083441 0.17593 -0.36432 0.30986 0.39756 -0.046007 0.16946 -0.098318 0.032783 0.068499 -0.0082562 -0.42779 -0.16716 -0.28664 0.011357 0.48933 0.24165 0.086028 -0.11187 -0.13279 0.13688 0.28705 -0.059669 -0.060562 -0.147 -0.21651 -0.14038 -0.030556 -0.13601 -0.6131 -0.0043622 -0.32966 -0.40133 0.048574 0.07285 -0.09131 0.055083 0.13031 -0.32706 0.1278 0.18946 -0.37104 0.094956 0.17543 0.063106 -0.50836 0.021004 -0.039603 -0.040037 0.084361 0.049406 0.17122 -0.26065 -0.21032 0.11214 0.0409 -0.28955 -0.35862 0.058383 -0.10602 0.11784 0.40412 -0.022564 0.01363 0.51102 0.038353 -0.13537 -0.028669 0.16364 0.17441 0.056303 -0.21223 0.44528 0.092412 -0.051901 0.29551 0.070908 -0.16229 -0.12193 0.38892 0.24775 -0.08901 0.15505 0.86221 -0.17022 -0.037609 0.19573 0.43054 -0.07815 -0.59915 -0.082461 0.12999 -0.20998 -0.16899 0.0018759 0.040026 0.29494 -0.033266 0.21205 -0.11971 0.45576 0.55565 0.23692 0.18013 -0.18935 -0.40385 -0.097086 -0.038534 0.12966 -0.18803 -0.0037655 -0.12017 0.63232 0.38579 0.58198 0.17717 0.19019 -0.13885 0.054522 -0.89029 0.19281 -0.143 0.25079 0.039511 0.17579 0.18256 -0.36317 0.1535 -0.052202 0.22803 0.18129 -0.29815 0.11322 1.3614 0.059419 -0.065389 -0.60947 0.17131 -0.21402 -0.17969 0.48229 -0.26542 0.23177 -0.14476 -0.13432 0.089644 0.091763 -0.043947 -0.032067 0.079946 -0.044089 -0.078539 -0.10461 0.44554 0.16316 -0.47263 0.28237 0.14248 0.067138 0.22437 -0.099258 -0.066056 0.33867 -0.13962 -0.0010703 -0.31721 0.032196 -0.14286 0.16483 0.18114 0.035147 0.24659 0.28402 -0.081875 -0.15227 0.014502 -0.12054 -0.49366 0.035887 0.25331 0.15713 -0.084972 0.19091 0.19858 0.048728 -0.13428 -0.083622 0.4336 -0.03162 0.39729 -0.029217 0.34034 0.26764 -0.16182 -0.032991 0.069511 0.042467 -0.33106 -0.14128 -0.18808 -0.193 0.49379 0.41689 -0.09331 -0.21242 0.35503 0.15342 0.27283 -0.15201 -2.0323 -0.14163 0.14721 0.27033 -0.35503 -0.30782 -0.0093921 0.17083 -0.36226 0.24374 -0.47131 0.17066 -0.064192 0.17174 -0.23219 -0.37176 -0.34125 -0.16655 0.20446 0.50176 -0.0030871 -0.26843 0.1496 0.1445
up -0.26145 0.33976 -0.095768 0.30043 0.027779 0.040418 -0.1842 -0.15673 0.51093 -1.5918 -0.114 0.12835 0.26905 0.072859 -0.12824 0.3686 -0.24485 -0.25444 -0.089447 0.054407 -0.010487 0.10394 0.042397 -0.071686 -0.36414 0.068837 0.26681 0.14804 0.10601 0.24392 -0.34228 -0.069612 -0.11603 0.39266 -1.5096 0.047212 -0.14798 0.18147 0.024242 -0.019448 -0.44752 -0.079838 0.093944 0.0073962 0.0012977 0.13048 0.15948 0.35524 0.12442 0.034227 -0.17292 -0.07497 -0.25826 -0.10637 -0.31018 0.0086572 0.20156 0.18944 -0.15379 -0.11033 0.089356 0.067662 0.23793 -0.058736 -0.056297 -0.39234 0.031426 0.35448 -0.19252 -0.14787 -0.039884 0.087192 -0.11612 0.1924 0.12996 -0.086663 -0.018181 0.23443 -0.07647 -0.20987 0.11557 -0.34542 0.20187 0.16035 -0.035966 0.12994 -0.051128 0.18278 0.07424 0.12902 -0.015482 0.22631 -0.085141 -0.27121 -0.32327 -0.23051 -0.65308 -0.0090465 -0.20021 -0.69946 -0.036286 0.034737 -0.18314 -0.14225 -0.15932 -0.29068 0.62979 0.60766 -0.58241 -0.18508 -0.092815 -0.70347 -0.36307 -0.5284 0.013887 0.5103 -0.23505 0.34415 0.30883 -0.46367 -0.23385 -0.21966 -0.022736 0.17279 0.15308 -0.05428 -0.21062 0.28919 -0.062313 -0.17558 -0.27922 0.25355 -0.10297 -0.025939 0.18498 0.025324 0.34896 -0.25809 0.03706 0.41099 0.030578 -0.056484 0.10717 0.49692 -1.0867 0.20216 -0.081334 -0.021496 0.11666 0.13779 0.47031 0.14782 0.13816 -0.076633 0.49921 0.1811 -0.40198 -0.20235 0.35975 0.27384 0.0065605 -0.12205 -0.1385 -0.047095 0.1246 -0.22152 0.15596 0.22742 0.21202 0.11634 -0.15898 0.09251 -0.38831 -0.13307 0.32745 -0.34178 -0.35403 0.12355 -0.16677 0.36122 0.031559 0.084275 0.19395 -0.028693 -0.081438 -0.063695 -0.21193 -0.0043199 0.37293 -0.15178 0.13632 0.10254 -0.034398 0.02193 0.1877 -0.31368 -0.45285 0.14507 0.17511 -0.20242 1.1116 0.30259 0.32515 0.6075 0.032884 0.37885 -0.028622 -0.14101 0.036444 -0.18202 -0.38837 0.043829 0.28475 -0.036554 -0.0040743 0.29218 0.075051 0.35669 -0.41355 0.41218 0.55982 -0.27963 -0.42908 0.020081 -0.25832 -0.11838 0.24611 0.18132 -0.057449 0.20153 0.11006 -0.14273 -0.18244 0.099457 0.41185 0.016225 0.023594 -0.023299 -9.3493e-05 0.079179 0.25617 -0.033406 -0.12088 0.2463 -0.7046 -0.44347 0.57497 0.2079 -0.59551 -0.21385 0.038843 -0.17143 0.5474 -0.3437 0.58732 -0.22812 -0.29401 -0.34109 0.032366 0.17765 0.27596 -0.16001 0.023216 0.24399 0.023385 -0.071735 -0.0033332 0.21784 0.045027 0.23098 -0.052579 0.055112 0.14519 0.37926 -0.064124 0.14305 -2.0171 -0.096574 0.17507 0.08396 -0.33222 0.16262 0.097196 -0.35691 -0.20997 0.48057 0.096117 0.35956 -0.14165 -0.31159 0.055437 -0.23593 -0.37602 0.016378 0.18872 0.33523 0.039738 -0.28389 -0.17033 0.1158
when -0.14154 0.027303 0.13594 -0.12016 0.31688 -0.0028325 0.049514 0.012035 0.050774 -1.7897 0.17104 0.053516 0.11965 -0.28427 -0.11842 0.54696 0.18613 -0.21728 -0.019592 0.1394 0.18126 0.36458 0.32449 -0.41804 -0.22941 -0.16257 0.076782 -0.31473 -0.23022 0.10487 0.043525 0.15086 -0.093423 0.14685 -1.2026 -0.23609 -0.3309 0.073908 0.010471 0.39361 0.30206 -0.057021 -0.07328 0.15602 0.10546 0.1024 0.24704 0.048915 -0.37086 0.35761 0.11456 -0.3531 -0.18486 0.18291 -0.12139 0.21357 0.31809 -0.01885 0.076738 0.065793 0.084918 0.042785 0.013886 -0.12587 -0.13497 -0.68993 -0.056046 0.19377 -0.0043867 -0.3382 0.015864 0.079101 -0.18845 0.64516 -0.1321 0.06716 0.24404 -0.15044 -0.29145 -0.15102 -0.13389 0.10672 0.31973 0.33605 0.27124 -0.020673 -0.11486 0.03977 0.16733 0.16547 -0.23408 0.3781 -0.45536 -0.16325 -0.52614 -0.046626 -0.2778 -0.11517 -0.02935 -0.43136 0.30015 0.0070567 0.19436 0.038689 0.2721 -0.033101 0.11026 0.23626 -0.3537 0.58166 0.097053 0.16942 0.078702 0.0028857 0.055987 0.3731 -0.084652 0.096969 0.22599 -0.4027 -0.24529 -0.10195 -0.30371 0.036757 0.064546 -0.23517 0.047384 -0.11552 0.19975 -0.074923 0.10251 0.47193 0.15586 -0.010578 -0.12878 -0.10125 0.1476 -0.30519 -0.064543 0.11826 -0.055813 0.17486 -0.22754 0.19615 -0.52189 -0.25948 0.42532 0.17688 -0.10713 -0.1538 0.098385 0.065569 0.18928 0.094288 0.43157 0.0015276 0.29366 -0.25954 0.21466 -0.22279 0.17274 -0.41475 0.17798 -0.098383 0.23478 -0.057598 -0.14901 0.15728 0.15703 0.38581 -0.19997 0.24065 -0.18025 0.21724 0.018454 0.086498 -0.004728 0.064158 0.048662 0.67566 0.20231 0.29127 0.10568 -0.017043 -0.11666 0.26424 -0.51086 0.22563 0.082379 0.22404 -0.015935 -0.036838 0.11362 -0.32926 -0.011907 -0.25745 -0.1685 0.079024 0.085879 -0.24409 1.1545 -0.27068 0.14564 -0.2611 0.15088 -0.18135 0.046878 0.21871 -0.25406 -0.12056 0.025745 -0.09964 0.34093 -0.078262 0.026061 0.10265 0.041974 -0.10168 -0.13576 0.0049288 0.58413 0.056521 -0.20976 -0.034506 0.20413 0.23441 0.30463 -0.11678 -0.028744 0.15485 0.21319 0.14854 -0.22809 -0.21391 -0.16309 0.016029 0.2771 0.26496 0.12137 -0.11806 0.032936 -0.072604 0.049753 0.14328 -0.48973 -0.022056 0.31291 -0.26033 0.031999 0.085601 0.096237 -0.26958 -0.39443 -0.1822 0.53606 -0.045552 0.18282 -0.11291 0.11868 -0.061892 -0.45329 -0.30976 0.060252 -0.13644 0.0082752 -0.14109 -0.19734 -0.16498 0.008415 0.19068 -0.14538 0.0051466 0.23109 0.19093 0.16254 0.028767 -1.974 -0.21626 0.21242 0.34706 -0.6473 0.078697 0.33776 -0.10795 -0.032845 0.71753 -0.34477 0.064902 -0.051115 0.13027 0.016749 -0.27986 0.091358 -0.11666 0.10341 0.23111 -0.08939 -0.40974 0.12668 0.11425
other -0.18569 0.40936 0.028912 -0.37458 -0.089231 0.17346 -0.23082 0.28773 -0.0046029 -1.5313 -0.014798 0.080037 -0.080096 0.13497 0.4107 -0.41911 -0.57231 0.10888 -0.093319 -0.083445 -0.021183 0.007889 0.55683 0.064019 -0.37636 -0.20425 -0.31239 0.41033 -0.21296 0.11144 0.062941 0.26411 0.082319 -0.13132 -0.78609 -0.26732 0.43797 0.29782 -0.20962 -0.010198 -0.24876 -0.38392 0.010982 0.15485 0.022492 0.27914 0.16476 0.29025 -0.23295 0.31745 0.20192 -0.46737 0.21468 0.060388 -0.21742 0.00042874 -0.33742 0.088049 0.059439 -0.15035 0.4585 0.28659 0.47565 0.14771 0.14503 -0.17762 0.30487 0.47887 -0.00038991 0.21459 0.0034514 -0.1262 -0.083302 -0.094561 0.041838 0.1078 -0.077588 0.1309 -0.17947 -0.082605 0.12255 -0.35519 0.034436 0.12933 -0.05969 0.063346 0.035808 0.21207 -0.070668 -0.026428 -0.13777 0.40761 -0.0060857 0.22049 0.071785 0.10801 -0.27928 -0.24587 0.37532 -0.17483 0.14889 -0.075658 -0.090427 -0.0085451 -0.27604 0.28299 -0.24833 -0.084961 -0.32511 0.17358 -0.28326 -0.33592 -0.23946 0.051166 0.13058 0.56536 -0.12569 0.16853 -0.18257 0.27827 -0.034837 -0.16975 0.02749 -0.029389 -0.13795 0.32222 -0.41339 0.34214 0.56368 -0.25903 -0.088393 -0.11582 0.54051 0.012152 0.087016 -0.26287 0.39749 0.056576 -0.22555 0.3545 -0.012853 -0.12136 0.31879 0.35036 0.012661 0.27444 0.09482 -0.066409 -0.25314 -0.044479 0.33522 -0.034195 0.16559 0.017518 0.010297 -0.1467 -0.23431 0.25515 0.19553 -0.24361 0.34167 0.055617 -0.14807 0.010752 -0.16079 0.35271 -0.10523 0.37731 0.078014 0.33497 0.32172 -0.1364 -0.6496 0.461 -0.20995 -0.31215 0.018937 0.18333 -0.30851 0.57379 0.090697 -0.039 0.17561 -0.020199 -0.18782 -0.083147 -0.022891 0.082292 0.38347 -0.37328 -0.17395 -0.22887 -0.27702 -0.014946 -0.027792 -0.14109 0.24987 -0.28962 -0.088123 0.038299 0.4567 -0.41372 -0.14732 0.033346 0.0021864 0.07377 -0.039996 0.037471 -0.084797 -0.542 0.071949 0.072729 0.33979 -0.26717 0.3182 0.0081078 0.34642 0.39961 0.14778 -0.034444 0.2545 -0.21025 0.062351 -0.23926 -0.065249 0.2361 0.10108 0.23047 -0.23776 -0.31923 -0.32516 0.26194 -0.29221 0.16815 0.50018 0.28451 0.54539 0.37148 -0.33106 0.0111 -0.16601 0.37221 0.46047 0.10349 -0.72138 0.13773 0.018015 0.14848 -0.16351 0.31623 0.017921 -0.37651 -0.08432 -0.12071 0.33125 0.093916 -0.12423 -0.28519 -0.48275 0.30256 0.096409 -0.26169 0.69319 -0.20036 0.15914 -0.14332 -0.61016 0.093928 -0.065817 0.36012 0.28148 0.26714 0.076674 0.43944 -0.15289 0.3134 -2.7326 -0.26249 0.47544 0.03826 -0.23763 0.15794 0.082262 0.17939 -0.056319 0.29885 -0.020334 -0.0021787 0.55529 -0.34759 -0.13106 -0.6136 -0.097152 -0.25491 -0.25967 0.042821 -0.26503 -0.50738 -0.20498 -0.068729
into -0.18234 -0.19209 0.15167 -0.048763 0.28354 -0.025568 -0.39882 -0.014072 0.41029 -1.987 -0.087275 -0.30528 -0.4207 -0.17242 -0.30693 0.33678 -0.59786 0.054602 0.85518 0.6055 -0.40567 0.1396 0.035689 0.44263 -0.020448 -0.012484 0.33335 0.27843 0.17969 0.087749 -0.18751 0.38865 0.27437 0.2073 -0.67627 0.53281 -0.060212 0.3741 -0.17736 0.024057 -0.224 0.015918 -0.15853 0.10634 0.68527 0.41504 0.11965 0.30794 -0.12247 0.15234 -0.24799 -0.00082312 -0.040181 0.31255 0.0092109 -0.42966 0.33973 -0.27939 -0.058729 -0.050781 0.17108 0.46297 0.064687 -0.062336 -0.238 0.088816 0.16204 0.37314 0.2088 0.086903 0.23596 -0.17365 -0.05268 0.16256 0.21552 0.041055 0.26416 -0.16653 0.23778 -0.69474 0.22748 -0.23981 0.022849 0.073929 0.3096 -0.37906 -0.20861 -0.034051 0.71935 0.037007 -0.27495 0.38604 -0.083809 0.14518 -0.2037 -0.18411 -0.21331 0.40815 -0.078285 -0.14309 0.11584 0.31062 -0.01499 -0.090657 0.18977 -0.18568 0.10357 0.3341 -0.15725 0.59303 -0.095849 -0.083001 -0.097752 0.017887 -0.17629 0.48538 -0.41216 0.17683 -0.064685 -0.46305 -0.033818 -0.044036 -0.069094 0.42357 0.091896 -0.41447 0.10849 -0.20554 0.19287 -0.25401 0.32446 0.75941 0.34858 0.17564 0.16905 -0.1707 0.21701 -0.17049 -0.50401 -0.06812 -0.15903 -0.080363 -0.23568 0.73129 -0.34348 -0.18181 0.029438 0.0072252 -0.077991 0.10117 0.48947 0.4041 0.23694 -0.40584 0.71953 0.23876 0.10948 -0.2367 0.43193 -0.06264 -0.15056 -0.05154 0.18052 -0.29531 0.50728 -0.59634 0.11834 0.46651 -0.443 0.064586 -0.29966 0.30252 -0.33575 0.21445 -0.55192 0.079914 -0.15483 0.46237 0.42118 0.32424 0.55856 0.020495 0.18315 0.09363 0.14524 -0.62881 -0.35046 0.31581 0.15463 0.0067886 0.21526 0.38635 0.048531 -0.079353 0.23485 0.36939 -0.04951 -0.050597 0.5714 0.20796 1.1376 -0.44768 -0.00021935 -0.15063 0.22366 -0.16895 -0.17075 0.2649 -0.57323 0.48043 0.0311 0.28406 -0.12428 0.4078 0.40418 0.6017 0.53215 0.068121 0.11551 0.1948 0.63715 0.21339 -0.44949 -0.41562 0.12969 -0.10735 0.098422 0.15929 0.25059 0.045432 0.13238 0.063072 -0.48294 0.016767 0.32896 0.32507 0.21798 -0.11116 -0.41638 0.085915 0.25688 -0.25742 0.2313 0.19098 -0.65207 -0.40362 0.48928 0.47309 -0.27714 0.20005 -0.12996 0.0061259 -0.24168 -0.43997 0.51078 -0.37626 0.16745 -0.11633 0.06407 0.78171 -0.04648 -0.27902 0.47555 -0.14956 0.43411 0.11741 -0.56707 -0.18078 -0.12509 0.17521 0.20455 0.37157 -0.013434 0.43376 0.078265 -0.407 -2.1016 -0.035284 0.48625 -0.31065 -0.7404 0.1942 0.12864 0.018245 -0.23597 0.16296 -0.1396 0.49789 0.16376 0.25394 -0.058528 -0.13367 0.15902 0.072976 0.77943 0.7924 0.073351 -0.24839 0.14468 0.17683
some -0.20969 0.18073 -0.16401 0.013859 -0.12066 -0.32045 0.30066 0.29993 0.079433 -1.7379 -0.33073 0.38947 -0.03217 0.49593 0.42202 0.13376 -0.37729 0.19272 0.046088 0.19894 0.13188 0.15433 0.36765 0.054241 -0.32795 0.01368 -0.27777 0.34166 0.07853 0.45871 0.23654 0.42045 -0.62128 -0.090873 -0.83579 -0.33465 0.17828 0.49772 0.16395 -0.46531 0.021805 -0.48171 0.15414 -0.071629 0.25237 0.015213 -0.0088422 -0.032659 -0.57228 0.14588 0.13302 -0.32644 0.13202 0.20259 -0.014579 0.38435 0.026736 0.30849 0.45976 0.30015 0.24224 0.19518 0.4731 0.035857 0.015013 -0.39917 0.24898 0.28579 0.22549 -0.060668 -0.13603 -0.2258 0.27984 -0.15356 -0.0021182 0.038267 -0.039469 0.064721 -0.44501 -0.23758 0.081949 -0.37228 0.13755 0.13578 0.20902 0.19981 0.16244 0.0017905 0.30419 0.28779 -0.18187 0.57256 -0.35821 0.16796 0.32985 -0.020055 -0.3623 -0.11052 0.072966 -0.18805 0.033541 -0.014969 -0.07542 -0.17793 -0.23725 0.054656 -0.049399 -0.063271 -0.57664 0.29026 -0.15747 -0.58418 -0.16611 -0.2165 0.18862 0.44795 -0.23116 0.33462 -0.092686 -0.32044 0.12368 -0.28712 -0.28113 0.61539 -0.28942 0.44092 -0.092358 0.30767 0.34047 -0.19798 -0.32236 0.003949 0.28768 0.23395 -0.1032 -0.32775 -0.060449 -0.17673 0.016267 0.043492 -0.65866 0.058802 -0.063032 0.22571 -0.42642 -0.18945 -0.033177 -0.12013 -0.019918 0.11232 -0.081155 -0.19805 -0.2043 0.14895 0.10568 0.24296 -0.32661 0.35725 0.17702 0.08111 0.29231 -0.21433 -0.14668 0.14115 -0.25122 0.24199 0.14903 0.32705 0.10924 0.077192 0.22741 -0.36616 -0.85599 0.17351 -0.13217 -0.2989 -0.024293 0.388 -0.091872 0.50352 -0.0010115 0.014467 0.16312 -0.24313 0.099115 -0.057724 0.20703 -0.082294 0.4993 -0.40641 -0.47454 -0.025543 0.14246 -0.091742 0.20739 -0.33067 -0.37402 -0.032789 -0.20275 -0.080877 0.55674 -0.1827 0.060812 0.19221 0.02232 0.22168 -0.25173 0.27011 0.13874 -0.28264 0.20432 -0.080672 0.35388 -0.098586 0.083369 -0.15121 0.28818 0.17342 -0.22062 0.13628 0.35976 -0.23624 -0.044664 0.21633 0.13111 0.24447 0.3331 0.039275 -0.22188 -0.44476 -0.061959 0.17481 -0.21065 -0.095587 0.51568 0.33611 0.16244 0.1587 -0.64295 -0.078202 0.021825 0.24242 0.3512 0.16036 -0.92623 -0.12729 0.31367 -0.051599 -0.2805 0.2521 0.032277 -0.44744 0.0032787 -0.19394 0.28086 0.21703 -0.098486 -0.058086 0.099323 0.034244 0.23886 0.28057 -0.017233 0.17791 0.24745 -0.13829 -0.50859 0.025998 0.16309 0.28085 0.085112 0.022417 -0.012502 -0.011018 0.18823 0.083738 -2.6406 -0.086175 0.43337 0.10114 -0.31946 0.1564 0.29308 0.0092835 0.10203 0.12804 0.054758 0.066123 0.29337 -0.046825 -0.16482 -0.4592 0.32512 0.21522 -0.028282 -0.21268 -0.38973 -0.33588 -0.0595 -0.28637
time -0.13544 0.14539 0.098176 0.027927 0.13773 -0.10157 -0.077469 -0.088126 0.33731 -1.6983 0.15218 0.07475 0.029915 0.051422 -0.0029723 0.12388 0.043299 0.089802 -0.20465 -0.055862 0.31791 0.034534 0.2945 -0.12702 -0.052015 -0.21604 0.036685 0.010581 -0.41788 -0.057079 -0.048993 0.35717 0.16539 0.18861 -1.6051 0.02282 -0.11233 -0.040446 -0.14177 0.31596 0.39601 -0.010631 -0.31988 -0.12419 0.077703 0.23717 0.48873 0.51726 -0.12604 0.13104 0.4824 -0.32694 -0.084319 -0.05101 -0.21287 0.23482 -0.17469 0.098685 0.088829 0.10877 0.2696 -0.16976 -0.059894 -0.10843 0.019634 -0.633 -0.059735 0.14917 0.17865 -0.20739 0.028565 0.097195 -0.31524 0.33968 -0.1019 0.41135 -0.025738 -0.03429 -0.19163 -0.30368 -0.27712 -0.015596 0.097467 0.19517 0.23848 0.04677 -0.040603 0.14048 0.14905 0.22329 -0.12273 0.25371 -0.13616 -0.23704 -0.43673 -0.07882 -0.28354 -0.051648 0.26785 -0.57022 -0.12007 0.24677 -0.034499 0.09913 -0.0022941 -0.19949 0.014269 0.39075 -0.26549 0.44583 -0.09142 0.15852 -0.18928 -0.060329 -0.12993 0.20732 0.019335 -0.0028282 0.26524 -0.41037 -0.39286 0.1819 0.11568 -0.044081 0.034233 0.20549 0.12896 0.18329 0.052026 0.16217 0.15438 0.067698 0.17243 -0.12657 -0.35252 -0.058345 -0.18192 -0.39251 -0.20589 0.31301 -0.41881 0.0097403 0.023301 0.34079 -0.12525 -0.39306 0.0021545 0.041851 0.11174 -0.088437 0.12554 -0.11181 0.034742 0.18626 0.31472 -0.34641 -0.067917 0.11817 0.081494 -0.21428 0.028573 -0.53727 -0.010434 -0.25915 0.14421 0.31885 -0.36332 0.1543 0.14317 0.32135 0.16758 0.17633 -0.57118 0.11126 0.19299 0.09285 -0.083728 0.12459 -0.10766 0.7784 0.11039 0.36844 0.12726 -0.16538 -0.059569 0.21714 -0.31207 -0.037105 -0.14367 0.227 0.095283 0.28176 0.17961 -0.26909 -0.026246 -0.37382 -0.18529 0.17749 0.0872 -0.34051 1.2487 -0.27856 0.0917 -0.030382 0.2114 0.17383 -0.37238 0.053023 0.11478 -0.4043 -0.10105 -0.21375 0.27486 -0.023415 -0.063461 0.34006 -0.3262 0.21136 -0.12506 0.21715 0.28362 -0.14191 -0.41199 0.15988 0.25718 0.053344 0.36548 -0.18024 -0.017005 0.072788 0.23986 0.23501 0.22396 -0.37744 -0.082599 -0.021603 0.32256 0.22111 0.38216 0.12437 -0.45097 0.38025 0.40774 0.010063 -0.63283 -0.097842 0.28494 0.27223 -0.23362 0.01466 -0.1521 0.033121 -0.096617 -0.12953 0.40254 0.094293 0.10315 -0.10039 -0.09246 0.30856 0.013633 -0.098284 -0.057583 0.027064 0.087857 0.26277 -0.01995 -0.028088 0.65253 0.14058 -0.20297 0.025424 0.31926 0.27265 0.23366 0.15634 -2.0905 -0.0045186 0.24282 0.040314 -0.32059 -0.14209 0.081309 -0.077896 -0.018943 0.23131 -0.08512 0.26997 -0.24118 -0.14381 -0.20741 -0.097232 -0.042869 -0.24658 0.14991 0.040743 -0.18465 -0.072427 -0.33019 0.0061309
years -0.47463 -0.075463 0.14321 -0.016768 0.25132 -0.074763 -0.0046861 -0.26093 0.2765 -1.6426 0.26436 0.24339 -0.1207 -0.055215 0.00061888 -0.29374 0.21217 -0.12168 -0.076609 -0.075319 0.0040356 0.262 0.11968 0.16393 -0.37339 -0.010278 -0.36938 -0.24901 -0.05615 0.094683 -0.075318 0.3062 -0.053231 0.038129 -0.67647 -0.34866 -0.1263 0.079275 0.29959 0.020725 0.7184 -0.076105 -0.56045 -0.080692 -0.0026781 -0.070995 -0.14065 0.69113 -0.28587 0.096051 0.12261 -0.51377 0.06428 0.21603 0.3374 0.15086 0.2295 0.26911 -0.17141 -0.23791 -0.21358 0.26406 0.12541 -0.4994 0.085364 -0.67915 -0.097914 0.29449 -0.11316 -0.49611 0.083162 0.14479 -0.22308 0.14152 -0.1483 -0.038119 0.020399 -0.24763 -0.35328 0.016634 -0.29364 -0.16207 0.38272 0.45879 0.10498 0.23933 0.045218 0.23942 0.057824 0.18779 0.066633 0.09703 -0.54595 0.42814 -0.31305 0.31636 -0.22287 -0.2722 0.38824 -0.22451 0.049289 0.30268 0.21787 -0.10669 -0.34285 -0.15172 0.14702 0.28641 -0.18439 0.010546 -0.0050587 -0.41632 -0.33982 -0.4553 -0.27091 -0.14879 0.0059792 0.18912 -0.18449 -0.075511 -0.12417 -0.0019771 -0.24563 0.33445 0.1656 0.3324 -0.13307 0.3481 0.3213 0.2779 -0.18226 -0.09086 -0.03335 0.02667 -0.16687 0.094975 -0.16866 0.39802 -0.068931 0.062451 0.012427 -0.17251 0.091452 0.56902 -0.10036 0.018057 0.1646 0.394 0.10356 0.0037855 0.37854 0.15516 -0.23255 0.067917 0.18774 0.048014 -0.45573 0.025678 -0.22477 0.021977 -0.097109 -0.066106 -0.12873 0.31942 -0.087893 -0.012641 -0.19467 -0.23176 -0.10178 0.23872 0.22682 0.25164 -0.75179 -0.025588 -0.0694 0.25833 -0.12167 -0.011429 0.23291 1.0735 -0.037785 0.55317 -0.01776 -0.13579 0.2372 -0.0059459 -0.5835 0.090919 -0.088568 0.030116 -0.20371 0.14972 0.50574 -0.33965 0.12361 -0.30724 -0.014008 0.17847 0.50756 -0.13602 1.205 0.070686 0.24979 0.23271 0.12264 -0.12479 0.039976 0.26002 0.10708 -0.20014 0.41937 -0.083765 0.018962 -0.084246 0.43488 0.25418 -0.61717 0.13915 -0.062138 -0.060126 0.43789 -0.20947 -0.12383 0.33746 -0.0014366 0.17011 0.17199 -0.22278 0.26162 0.15003 0.2686 -0.023596 -0.04067 -0.49721 -0.34809 -0.12336 0.47254 0.11698 0.041489 0.035415 -0.45057 -0.050118 0.44973 0.20218 -1.0325 -0.31084 0.49409 0.22914 0.087181 -0.056195 -0.21013 -0.0071545 0.20376 -0.16175 0.79935 -0.055718 0.30904 0.0087211 0.28638 0.047403 -0.20525 0.2618 0.15681 -0.13343 0.093614 0.49582 -0.11402 -0.034465 0.37347 0.27634 -0.16916 0.26706 0.41365 -0.062847 0.61546 -0.15319 -2.2345 -0.1448 0.035965 -0.0084897 -0.34389 -0.043179 -0.1457 -0.022144 -0.08946 0.62411 -0.47413 0.30809 -0.14086 -0.048926 0.0056325 0.0012606 0.122 -0.075147 0.18566 0.16491 -0.015157 -0.30289 -0.37213 -0.034922
if -0.23365 0.35933 -0.068678 -0.10677 0.077185 -0.0065757 0.24936 -0.094439 0.10171 -2.2497 0.29411 -0.18309 -0.14015 0.14378 0.0042022 0.15397 -0.40626 -0.23755 0.06609 -0.27411 0.20938 0.25076 0.59251 -0.13771 -0.3796 -0.019725 0.15471 -0.081814 -0.29737 0.10321 -0.036421 0.36891 -0.053086 -0.59242 -1.0985 0.21928 -0.23952 -0.27077 -0.16765 0.28312 -0.060327 -0.081944 -0.4888 -0.078247 -0.25126 -0.014023 0.05027 0.1088 -0.29229 0.27281 -0.17306 -0.40305 -0.032219 0.14619 -0.25921 0.38525 0.14965 0.19402 0.13982 0.18556 0.27423 0.2745 0.15379 0.5718 -0.53454 -0.31435 0.16518 -0.06865 0.21926 -0.087255 0.25342 -0.13374 0.19659 0.4886 0.050887 0.069421 -0.048893 0.37832 -0.35823 -0.091807 -0.40339 0.01941 0.24941 0.10106 0.095033 -0.20661 -0.39484 0.45071 -0.37447 0.017259 -0.81289 0.3386 -0.33798 -0.44932 -0.11854 0.37655 -0.35786 0.19755 0.006284 -0.29972 0.076409 0.12604 -0.16581 -0.00052046 0.14907 0.31872 0.33869 -0.19112 -0.22472 0.18495 0.031458 -0.26227 0.073028 -0.11315 0.043727 0.57185 -0.2229 0.022794 0.19501 -0.17949 0.10907 0.07371 0.045273 0.39019 0.29831 -0.023371 0.26478 0.25673 0.14282 0.062231 0.23436 0.22138 0.0020564 -0.065023 -0.01382 -0.015208 -0.021939 -0.024671 0.050454 0.079337 0.11195 0.34882 -0.068356 0.22876 -0.6168 -0.5235 -0.15702 -0.014239 -0.085597 -0.16883 -0.40919 -0.20063 0.26261 -0.20427 0.18798 0.15155 0.27235 -0.12111 -0.052602 0.19555 0.19679 0.0041412 -0.14338 0.27147 0.090375 -0.048094 0.001973 0.053896 -0.21163 0.13795 0.23114 0.17602 -0.59703 -0.014749 0.29315 -0.22055 0.066486 0.26519 0.38784 0.26324 0.21088 -0.20037 0.25269 -0.15037 -0.24317 -0.15769 -0.14672 0.045281 -0.18637 0.29718 -0.087475 0.13407 0.057758 -0.066766 0.073549 -0.23753 0.17782 0.20143 0.14067 -0.33611 1.2676 -0.062007 0.049594 0.071394 -0.045102 0.030137 0.39137 -0.21025 -0.15734 -0.58257 -0.34052 -0.32256 0.2857 0.11795 -0.14068 0.1302 0.12644 0.20943 -0.16204 0.20366 0.22423 0.21664 -0.30591 -0.015173 0.16767 -0.18982 0.32953 0.076262 0.066532 -0.15409 0.21891 0.12542 0.39184 -0.28244 -0.21061 0.30277 0.14185 -0.060918 0.17212 -0.098707 0.20648 -0.22386 0.41254 0.055258 -0.61414 0.18411 0.31718 0.12785 -0.14627 -0.22205 -0.075543 0.15736 -0.62155 -0.096147 0.3634 -0.0019288 -0.01122 -0.22648 0.14014 -0.03042 0.093618 -0.53809 0.087103 0.27929 -0.15032 0.0070523 0.3823 0.46017 -0.0064559 0.17097 0.1268 -0.016201 0.3331 0.20692 -0.02677 0.31363 -2.3887 -0.38073 0.40637 0.11935 -0.078843 0.17003 0.047074 0.081673 -0.065328 0.27849 0.33833 0.013355 -0.51388 -0.13005 -0.059572 -0.24437 0.36942 -0.05216 0.14862 -0.35663 0.022728 -0.71332 -0.010417 0.33218
world -0.25831 0.43644 -0.1138 -0.5259 0.20213 0.95247 -0.58764 -0.047001 -0.053704 -1.744 0.99583 0.063464 -0.093147 -0.26441 -0.28676 -0.52357 -0.17867 0.18171 -0.71696 -0.13301 0.42476 0.42044 0.3775 0.082431 0.13154 -0.10151 -0.11898 0.029509 -0.39635 0.26516 -0.55091 0.23805 -0.018748 -0.039944 -1.1972 0.13567 0.09371 -0.60134 0.12887 0.34876 -0.25588 -0.33466 0.069678 0.5429 0.25246 0.17249 0.099885 0.099456 -0.01592 0.2617 0.36155 -0.12417 0.27516 0.037434 -0.075003 0.61096 0.05261 0.017307 0.12576 -0.11952 -0.49077 0.026711 -0.27187 -0.15268 -0.22147 0.18131 -0.045344 0.76151 0.17489 -0.44112 0.027347 0.42676 -0.0069618 -0.60233 -0.016613 0.18418 0.021843 -0.34176 -0.55154 0.35013 0.42137 -0.26789 -0.18035 0.053171 0.14083 0.29055 0.152 0.01439 0.38663 0.030334 -0.14704 -0.036147 0.27349 -0.21787 0.19873 0.12488 -0.049808 0.41397 -0.14756 -0.41982 0.31144 0.043027 0.13019 -0.1066 0.19274 -0.035078 0.29942 -0.11902 -0.44143 0.30043 -0.14127 0.025526 -0.13042 -0.14063 0.073307 0.073228 0.24368 0.52377 0.049154 -0.11187 -0.52428 0.010288 0.16688 -0.0030069 0.22922 0.66468 -0.36986 0.095543 -0.26651 -0.57594 0.16846 0.26121 0.2439 -0.45329 -0.52662 -0.011254 -0.017331 -0.30143 -0.52018 -0.11831 -0.28169 0.19066 0.13315 0.41312 0.23883 -0.10314 0.62913 -0.091733 -0.28854 0.16397 0.44321 -0.60102 -0.1172 -0.056136 0.60052 -0.054252 -0.55247 -0.11621 0.068191 -0.45674 0.032338 0.051022 0.22195 -0.16676 0.033077 -0.15372 0.20906 0.3812 -0.13643 -0.27834 0.06265 0.27672 -0.56545 -0.2464 0.29436 0.16149 0.77578 -0.14377 -0.11131 1.1964 -0.067608 0.46178 0.69352 -0.31582 0.64509 0.072062 -0.50423 0.27635 -0.13346 0.01853 0.25858 -0.15529 0.12289 -0.34966 -0.48943 0.11885 0.16122 -0.25976 0.15021 0.11598 1.8908 0.23723 0.14245 -0.32139 -0.16806 0.26471 -0.27449 -0.010458 0.044555 -0.21198 -0.17074 0.046153 -0.21848 -0.26406 -0.14896 0.60799 -0.56122 -0.36819 -0.15405 0.16577 0.33116 -0.48585 -0.24098 -0.029899 0.17621 0.045554 -0.0063902 0.36114 -0.49063 -0.041788 0.080747 0.061024 0.39921 0.01599 0.15847 0.0091571 0.38123 0.20664 -0.39652 -0.26899 -0.77855 0.01754 0.242 0.17483 -0.62412 -0.093079 -0.29577 -0.0076823 -0.034885 0.25996 0.31075 -0.36391 0.21322 0.19122 0.0075838 -0.43858 0.12941 -0.73911 -0.032862 -0.038055 0.19221 -0.43609 -0.2739 -0.15047 0.11068 0.34753 -0.61807 -0.0093843 0.19075 0.32107 -0.13255 0.36662 0.75575 0.94367 0.10123 -0.13744 -2.0208 0.069843 0.83247 -0.22516 -0.52209 -0.60384 -0.38571 0.19936 0.519 -0.28605 -0.39936 0.12247 -0.77574 -0.078337 -0.35379 -0.40318 -0.84683 0.089815 0.21117 0.45053 0.35026 0.081697 -0.0044191 -0.14102
can -0.51102 0.61752 -0.35497 -0.2223 0.10457 0.20751 0.3346 -0.021973 0.25905 -2.2308 0.41973 -0.27544 -0.096306 -0.43 0.17015 0.12219 -0.36435 -0.23498 -0.086072 -0.11234 0.24426 0.1148 0.46854 0.26736 -0.18563 0.020988 0.027941 0.29551 -0.038023 0.11233 0.11396 0.054999 -0.36344 -0.32221 -0.83325 0.30108 -0.10951 -0.091982 -0.12686 0.048181 -0.325 0.1541 -0.37605 0.013721 -0.10778 -0.16442 0.18783 0.31216 -0.29901 -0.0087647 -0.024763 -0.40049 0.1949 -0.28915 -0.16087 0.43843 -0.10645 -0.11427 -0.38679 0.4496 0.8899 -0.06975 0.32602 0.57363 -0.079541 -0.27164 -0.036802 0.54107 0.20348 0.0068903 0.20936 -0.23766 0.21384 0.27481 -0.048731 -0.12284 0.011006 0.074081 0.012131 -0.35476 -0.30538 -0.017769 0.17537 -0.41549 -0.24084 0.13779 -0.29703 0.62587 -0.26024 0.11544 -0.74801 0.29847 -0.17028 -0.44769 0.069822 -0.0062046 -0.19582 0.30517 0.43156 -0.28346 -0.10249 0.18122 -0.3407 -0.11835 0.09867 0.2763 0.56454 -0.25675 0.014815 0.12567 0.098746 -0.25132 -0.11533 -0.19034 0.14321 0.27914 -0.23925 0.23937 -0.12831 -0.035769 -0.00093073 -0.24853 0.14066 0.26616 0.15017 0.17951 0.45126 0.39036 0.41061 0.081743 0.47554 0.23167 0.28947 0.39598 -0.070755 -0.23686 -0.059168 -0.031768 -0.16999 0.20842 -0.23258 0.0947 -0.028888 0.21636 -0.52035 -0.4852 -0.087896 -0.055735 -0.078628 0.22648 -0.26493 -0.23411 0.095053 -0.28445 0.3519 0.35932 -0.026848 -0.031059 0.0070794 -0.14415 0.053427 -0.30339 0.16718 -0.055122 0.16643 0.18781 0.070033 -0.11854 -0.25239 -0.052538 0.25106 0.28598 -0.67171 0.19791 0.061111 -0.56945 -0.31127 0.38608 -0.02359 -0.0097456 -0.034746 -0.27949 0.084978 0.060099 -0.2594 -0.097314 0.0079497 0.18027 0.32291 0.1089 -0.17058 0.55978 0.24668 0.08013 -0.027312 -0.21468 0.47101 0.044437 0.24903 -0.49921 0.81545 0.21895 0.16182 -0.0051256 0.1717 0.079284 -0.018767 0.43171 -0.50292 -0.26808 0.11331 -0.63829 0.2676 -0.09342 0.0089649 0.012098 0.54501 0.35286 -0.1857 0.28629 -0.10819 0.19799 -0.37172 -0.091246 -0.031839 -0.18393 0.43035 0.32186 -0.17135 -0.28476 0.046318 0.43314 0.30555 -0.55866 -0.029246 0.59283 0.032241 -0.015248 -0.51648 -0.0005315 -0.21614 0.054841 0.16618 -0.1455 -0.95462 0.18537 0.19322 0.17694 -0.14976 -0.14218 0.11808 -0.081259 -0.48768 -0.2973 -0.044148 -0.051293 0.10561 -0.25196 0.071363 0.13014 0.18062 -0.48742 0.24087 0.17755 0.063717 -0.36754 0.117 0.45221 0.067609 -0.25066 0.18608 -0.0645 0.60387 0.051715 -0.032263 0.025565 -2.4724 -0.20018 0.17645 -0.26655 -0.18136 0.024749 0.14735 0.23103 -0.28892 -0.0047148 0.34669 0.11751 -0.39083 -0.27126 -0.13658 -0.34365 0.095111 -0.10068 0.0011446 -0.44578 0.0054592 -0.71145 -0.17716 -0.18386
so -0.24561 0.06801 0.18254 -0.29551 0.018007 0.16811 0.19109 0.06365 0.21243 -2.1165 0.37864 -0.10974 -0.2034 0.085525 -0.32146 0.048442 -0.27847 -0.27883 0.1285 -0.10495 0.12134 0.45983 0.12976 0.030153 -0.3302 0.23499 0.15116 -0.2501 -0.12135 0.40642 0.052263 0.32016 -0.42218 -0.15186 -1.0565 0.30503 -0.0011422 -0.090414 -0.075197 -0.079242 -0.034756 -0.14131 -0.19038 -0.077423 0.048919 0.24843 0.19439 -0.10053 0.11012 0.30298 0.29027 -0.27237 0.086791 -0.14677 -0.38868 0.21407 0.014234 0.055393 0.17376 0.065738 0.40475 -0.029207 0.18231 0.40401 -0.15855 -0.2327 0.23904 0.18642 0.080885 0.023269 0.023239 0.051655 0.092405 0.63031 0.25124 -0.20871 0.27705 0.24483 -0.40881 -0.099428 -0.23452 -0.065307 0.46555 -0.12339 0.067672 0.26328 -0.19264 0.36981 0.032269 0.21389 -0.33918 0.33028 -0.38563 -0.29815 -0.15889 -0.054483 -0.31472 0.061231 0.075439 -0.21717 0.057188 -0.11344 -0.014499 -0.088997 -0.093028 0.055303 0.23446 0.16238 -0.25152 0.17325 -0.25444 -0.18785 -0.19325 -0.17256 -0.11149 0.043777 -0.22146 -0.12673 0.15096 -0.29503 0.04022 -0.2369 0.12001 0.39648 0.25297 0.079608 -0.14299 0.27292 -0.16782 0.15189 0.21302 0.21094 0.21875 0.14928 -0.38411 -0.09175 0.17373 -0.16475 0.057943 0.10124 -0.080045 0.31523 -0.014418 0.34638 -0.66438 -0.31016 0.24332 0.059218 -0.015125 -0.079031 -0.14769 -0.26273 0.012309 -0.074354 0.34916 0.014601 0.041956 -0.26348 0.0928 -0.17278 -0.037439 -0.45319 0.084474 0.088164 0.21473 -0.066083 0.0045427 -0.048284 0.08925 0.062916 0.088596 0.30438 -0.68658 0.02904 -0.075351 -0.22897 -0.12309 0.14502 0.094642 0.33689 0.094013 0.046941 -0.042678 -0.23334 0.23579 -0.18884 0.081342 -0.028924 0.2636 0.17096 -0.054196 -0.16244 0.16515 -0.13793 0.14287 -0.30876 -0.28393 0.16798 0.067876 -0.3941 1.0744 -0.15689 0.12324 0.049022 0.15685 -0.088788 0.11734 0.10831 0.22051 -0.25443 -0.24655 -0.11989 0.18085 0.1239 -0.072709 0.1197 0.1312 0.15384 0.13839 0.063832 0.31536 0.09594 -0.065503 0.029662 0.097104 0.12741 0.16053 -0.11504 -0.3115 -0.092226 0.056706 -0.091555 0.10222 -0.21327 -0.2925 0.13157 0.021655 0.067486 -0.208 0.10391 0.32409 0.081532 0.33266 0.34256 -0.789 -0.10597 0.14942 0.10774 -0.049388 0.077332 0.15184 -0.39061 -0.10818 0.097691 0.64866 0.030816 -0.073734 -0.28047 0.066118 0.048955 -0.20672 -0.2695 -0.036829 0.080812 0.038849 0.16104 -0.11471 -0.073495 0.29655 0.1803 0.086003 0.025727 0.080528 0.21477 0.04684 0.30134 -2.1721 -0.13761 0.18022 0.1849 -0.20713 0.12292 0.20426 -0.081932 -0.23247 0.23988 0.15321 0.18745 -0.40118 -0.27027 0.095983 -0.34739 0.03264 0.047579 0.22242 -0.2314 0.11431 -0.66914 -0.034753 0.097869
them -0.20588 0.19257 -0.11827 -0.15712 -0.38016 0.05984 -0.032788 0.17465 0.40397 -1.8908 0.10638 -0.36476 0.05418 -0.027433 -0.18836 0.1355 -0.23994 -0.071888 0.36354 -0.12846 -0.0014596 0.061712 0.58014 -0.038355 -0.27338 -0.28991 -0.33286 0.55739 0.14524 0.015591 -0.18613 0.1044 0.024976 -0.41022 -1.0108 -0.072071 -0.016702 0.2883 0.12603 -0.44816 0.451 -0.22655 -0.32827 -0.032651 0.073625 0.4586 -0.021645 0.22891 -0.2599 -0.17484 0.24557 -0.27777 -0.15828 -0.38369 -0.10561 0.15613 -0.24917 0.14219 -0.18627 0.13364 -0.052249 0.028225 0.31456 0.46253 0.15884 -0.31894 0.17882 0.018628 -0.067114 0.24124 -0.04857 -0.31391 -0.30467 0.26682 0.1598 -0.10008 0.25086 0.32253 -0.0050946 -0.46566 -0.020349 -0.16525 -0.012489 0.15006 -0.19005 -0.0096128 -0.043674 0.1108 0.12821 0.20236 -0.36321 0.44662 -0.11646 0.26071 0.096186 -0.04885 -0.41692 -0.32092 0.17508 -0.1109 0.25188 -0.16408 -0.070143 -0.30435 0.06363 0.035219 0.12051 -0.057574 -0.22574 0.14639 0.1667 -0.015536 0.02076 -0.3221 -0.028575 0.39123 -0.61909 0.22785 0.33463 -0.38201 -0.37438 -0.16817 0.15756 0.31505 -0.19148 -0.12333 0.0019935 -0.090759 0.13416 -0.20724 0.25103 0.026899 0.29905 0.46795 -0.31818 -0.013788 0.2212 -0.26518 -0.071694 0.30958 0.031732 0.072547 -0.33979 0.49371 -0.56061 -0.17703 0.17065 -0.13747 0.28845 -0.29284 -0.1934 0.026362 -0.037463 -0.18939 0.25657 0.20978 -0.23359 -0.29879 0.042495 -0.11823 0.077192 -0.33069 0.27392 -0.11607 0.0045931 0.17704 0.36675 0.20495 0.058702 -0.02366 0.066573 -0.2562 -0.48375 0.24518 0.23128 -0.12906 -0.3297 0.4285 -0.2311 0.40057 0.46974 -0.25586 0.30898 -0.14363 -0.18792 0.068157 -0.15757 0.14562 0.55727 -0.011218 -0.01242 0.17634 0.071434 -0.10401 0.28935 -0.21226 -0.2588 0.093032 0.45406 -0.18511 0.64489 -0.3299 -0.16341 0.20429 0.21976 -0.05824 0.31322 0.14362 -0.058819 -0.52423 -0.31484 -0.083798 0.32035 0.012847 0.29856 -0.041638 0.25574 0.49468 -0.25885 0.2029 0.26486 -0.14175 -0.0098492 -0.045118 -0.27711 -0.21211 0.54878 0.32803 -0.12014 -0.20164 0.1626 -0.0037302 -0.28852 -0.27764 0.060362 -0.23966 -0.26602 0.15617 -0.14668 0.11793 -0.077807 0.18101 0.43906 0.36572 -0.54657 -0.043198 0.24796 0.164 -0.26369 -0.22494 -0.081996 -0.2472 -0.18063 -0.022278 0.84354 0.10819 -0.15677 -0.12637 -0.025005 -0.023598 0.14412 -0.64454 0.23286 0.021366 0.177 0.14888 -0.33053 -0.18022 -0.31249 -0.16835 0.19844 0.021983 0.16749 0.6013 0.20274 0.0015445 -2.7504 -0.1906 0.15862 0.10331 -0.27867 0.44422 0.092754 0.23597 -0.070352 0.43841 0.1123 0.35573 0.18423 -0.15848 -0.057513 -0.6506 0.028065 -0.13532 0.11599 -0.24449 0.048469 -0.32868 -0.1696 -0.12965
him -0.15884 0.36095 -0.11337 -0.42143 -0.28479 -0.089365 0.12503 -0.35922 0.027257 -1.6332 0.34751 -0.23364 0.041219 -0.032185 -0.1998 0.5946 -0.41783 -0.10257 0.4662 -0.13472 0.19997 0.17294 0.1864 -0.2115 -0.32158 -0.47813 -0.30968 0.46145 0.3793 0.01753 -0.12028 0.081734 0.41382 -0.39909 -1.4771 -0.32784 -0.033119 0.13478 -0.31859 -0.52044 -0.088373 -0.35721 -0.28997 -0.4397 0.053775 0.44 0.045299 -0.048384 -0.1989 0.19492 0.088265 -0.42122 -0.083147 -0.068951 0.11152 0.17568 -0.14846 0.15603 0.15416 -0.21811 0.024568 0.44297 0.29752 0.58522 0.070872 -0.66565 0.079713 -0.47375 0.24584 0.17223 -0.0064476 -0.37045 -0.17024 0.30128 0.27813 -0.28092 0.02973 0.11584 -0.0045447 -0.030416 0.2941 0.19638 0.02863 0.37809 -0.28503 0.36467 0.098074 0.16357 0.19788 0.32191 -0.24638 -0.016181 -0.31484 0.0024095 -0.14281 -0.24167 -0.20712 -0.33727 0.2832 -0.10717 0.038381 0.12106 -0.3009 0.17874 0.29208 0.050614 -0.0047579 -0.083295 -0.24814 0.29857 -0.070664 0.65871 -0.1205 -0.41363 0.3568 0.10191 -0.64072 -0.46903 0.18174 -0.68017 -0.52144 0.10708 -0.24385 -0.19371 0.018142 -0.35882 -0.012397 -0.35468 0.40988 -0.1117 0.2106 0.042912 0.32358 0.083542 -0.28563 -0.13213 0.25353 -0.28757 -0.13224 -0.10087 0.26986 0.10147 -0.28743 0.62493 -0.6587 -0.50243 0.011012 -0.28081 -0.041472 -0.32699 -0.032165 0.13737 0.024064 0.14766 -0.009068 0.18833 0.54604 -0.043075 0.27359 -0.071493 0.36147 -0.22873 0.4216 -0.04212 0.19966 -0.31804 -0.12763 0.38041 -0.056519 -0.037084 -0.021359 -0.3352 -0.80899 -0.16226 0.27183 -0.16064 -0.004956 0.31471 -0.36953 0.26728 0.57004 0.20038 0.28405 0.045221 -0.54267 -0.29041 -0.26138 0.70124 0.2227 -0.015091 -0.467 0.086279 0.071701 -0.23963 -0.11261 -0.41387 -0.38074 -0.12045 0.71311 -0.17804 1.6967 -0.13913 0.055541 0.17123 -0.22417 -0.088737 0.21509 0.18208 -0.13843 -0.31248 -0.14739 -0.15912 0.48343 -0.32445 0.15622 -0.0042804 -0.14569 0.21409 -0.059293 -0.051116 0.044112 -0.059523 -0.12 0.16698 0.02783 -0.040902 0.057611 0.098403 -0.15499 -0.19668 0.28763 -0.13665 -0.18776 -0.10995 -0.13147 -0.36211 -0.27052 0.12412 0.013419 0.019881 -0.15517 -0.16574 -0.0079539 0.15361 -0.25758 0.098332 0.11083 0.058865 -0.36989 -0.19431 0.062014 -0.24146 0.089962 -0.12174 1.2166 0.1406 -0.067342 -0.19979 0.17959 -0.22606 0.010122 -0.38214 0.27024 0.049569 -0.16339 -0.2501 0.036627 0.020517 -0.44557 -0.23197 -0.10387 -0.25209 0.48096 0.58208 0.61074 -0.042804 -2.2421 -0.41039 0.56638 0.24402 -0.31731 0.37208 0.40007 0.41755 -0.045318 0.57761 -0.095198 0.36531 0.041513 -0.1123 0.030342 -0.19614 -0.16016 -0.28513 0.27751 -0.14361 0.21478 -0.22381 -0.29343 -0.033526
many -0.15507 0.28422 0.31191 -0.19596 0.12573 -0.15209 0.14548 0.33711 -0.093931 -1.4419 0.10174 0.19289 -0.17298 0.23798 0.53947 -0.37829 -0.33783 -0.06036 0.16236 0.13202 0.063932 0.10085 0.54784 0.29216 -0.42579 0.035594 -0.17982 0.28462 -0.054354 0.3454 0.56126 0.5283 -0.51691 -0.14638 -0.66691 -0.37467 0.079261 0.17715 0.27367 -0.37634 -0.042862 -0.52566 0.12777 0.14006 0.016859 0.25457 0.042743 -0.073537 -0.31344 0.22237 0.15619 -0.56036 0.4296 0.072651 -0.088996 0.23558 -0.12999 0.15094 0.27648 0.49983 0.23577 0.20578 0.35076 0.35698 0.16593 -0.30547 0.35538 0.51346 0.037179 -0.096642 -0.14543 -0.23889 -0.076047 0.20895 0.069223 -0.023322 0.078997 0.076464 -0.41642 -0.20492 -0.12762 -0.18402 0.15979 0.089599 0.18275 0.40419 0.31797 -0.072829 0.28955 0.29456 0.04775 0.28954 -0.27151 0.19328 0.21686 0.16109 -0.037482 -0.31899 0.3044 -0.25218 0.24004 -0.15585 0.16922 -0.11815 -0.41201 0.2253 -0.16233 -0.15321 -0.445 0.30472 -0.24093 -0.24607 -0.015409 -0.19738 0.15314 0.1096 -0.13948 0.080906 -0.30998 -0.12037 0.093754 -0.18125 0.11985 0.564 0.059454 0.32391 -0.45364 0.16359 0.20243 -0.25872 -0.25309 0.076946 0.29036 0.053542 -0.092019 -0.49879 -0.058798 -0.044847 0.21417 0.12484 -0.25629 -0.05702 -0.13347 0.61864 -0.073882 0.051746 0.21659 -0.11478 -0.18546 0.18322 -0.088982 -0.28063 -0.27916 0.059794 0.1791 0.16413 -0.28869 0.20969 0.31928 -0.30095 0.048623 -0.1288 -0.054217 0.29101 -0.32705 0.28476 0.057349 0.14773 -0.16863 0.040982 0.04214 -0.20749 -0.95648 0.29489 -0.046888 -0.060317 -0.17068 0.18846 -0.27859 0.77472 -0.067064 0.075697 0.30004 -0.16774 0.23384 0.15131 0.011051 -0.085912 0.37694 -0.15905 -0.41811 -0.20997 0.17167 -0.19505 0.11969 -0.3123 -0.088378 -0.23607 -0.13798 -0.1101 0.411 -0.048017 0.11181 0.07532 0.20162 0.13526 -0.11794 0.3409 0.14639 -0.17869 0.157 0.15539 0.39695 -0.042569 0.28163 0.11572 0.12647 0.2755 -0.018551 0.042987 0.53939 -0.24258 0.016287 -0.24724 0.24333 0.24491 0.27945 0.15831 -0.2827 -0.29494 0.033901 0.2089 -0.30873 0.093163 0.12584 0.32798 0.25815 0.18998 -0.74762 0.0058797 -0.28871 0.50162 0.45636 0.0545 -1.1485 -0.15565 -0.027837 0.13609 -0.16953 0.51329 0.13296 -0.25486 -0.0491 0.00491 0.49126 0.049547 -0.058123 0.057348 -0.19905 -0.037507 -0.10662 -0.12714 0.43638 -0.094561 0.25513 -0.31415 -0.63804 -0.17754 0.19695 0.37949 -0.058079 0.57033 0.045701 0.017218 0.075382 0.0051216 -2.7359 -0.099892 0.33327 0.22997 -0.20159 0.040204 0.11915 0.054997 -0.13748 0.21606 -0.058659 0.30739 0.21953 -0.037842 -0.12425 -0.53169 -0.03767 0.15068 -0.13913 -0.088808 -0.22713 -0.54562 -0.14735 -0.31493
