i 0.11891 0.15255 -0.082073 -0.74144 0.75917 -0.48328 -0.31009 0.51476 -0.98708 0.00061757 -0.15043 0.8377 -1.0797 -0.5146 1.3188 0.62007 0.13779 0.47108 -0.072874 -0.72675 -0.74116 0.75263 0.8818 0.29561 1.3548 -2.5701 -1.3523 0.4588 1.0068 -1.1856 3.4737 0.77898 -0.72929 0.25102 -0.26156 -0.34684 0.55841 0.75098 0.4983 -0.26823 -0.0027443 -0.018298 -0.28096 0.55318 0.037706 0.18555 -0.15025 -0.57512 -0.26671 0.92121
like 0.36808 0.20834 -0.22319 0.046283 0.20098 0.27515 -0.77127 -0.76804 -0.34861 0.5062 -0.24401 0.71775 -0.33348 0.37554 0.44756 0.36698 0.43533 0.4757 -0.056113 -0.93531 -0.27591 0.3161 0.22116 0.36304 0.10757 -1.7638 -1.2624 0.30284 0.56286 -1.0214 3.2353 0.48483 0.027953 0.036082 -0.078554 0.18761 -0.52573 0.0372 0.27579 -0.07736 -0.27955 0.79752 0.0016028 0.45479 0.88382 0.43893 -0.19263 -0.67236 -0.39709 0.25183
love -0.13886 1.1401 -0.85212 -0.29212 0.75534 0.82762 -0.3181 0.0072204 -0.34762 1.0731 -0.24665 0.97765 -0.55835 -0.090318 0.83182 -0.33317 0.22648 0.30913 0.026929 -0.086739 -0.14703 1.3543 0.53695 0.43735 1.2749 -1.4382 -1.2815 -0.15196 1.0506 -0.93644 2.7561 0.58967 -0.29473 0.27574 -0.32928 -0.201 -0.28547 -0.45987 -0.14603 -0.69372 0.070761 -0.19326 -0.1855 -0.16095 0.24268 0.20784 0.030924 -1.3711 -0.28606 0.2898
dog 0.11008 -0.38781 -0.57615 -0.27714 0.70521 0.53994 -1.0786 -0.40146 1.1504 -0.5678 0.0038977 0.52878 0.64561 0.47262 0.48549 -0.18407 0.1801 0.91397 -1.1979 -0.5778 -0.37985 0.33606 0.772 0.75555 0.45506 -1.7671 -1.0503 0.42566 0.41893 -0.68327 1.5673 0.27685 -0.61708 0.64638 -0.076996 0.37118 0.1308 -0.45137 0.25398 -0.74392 -0.086199 0.24068 -0.64819 0.83549 1.2502 -0.51379 0.04224 -0.88118 0.7158 0.38519
coffee -0.54015 -0.29931 -0.67591 0.15784 0.90241 -0.89567 -1.1267 -0.69013 0.7116 0.71231 0.11031 -0.37268 0.93846 -0.42899 1.0807 0.43785 -0.38785 0.65528 0.34501 -1.3793 1.114 -0.20227 0.53612 0.67394 -0.52717 -0.30703 -0.14833 0.78579 0.84364 0.56468 2.1954 -0.097544 -0.41744 1.0296 0.083024 -0.1552 -1.1257 0.74416 1.1534 0.24415 0.057113 0.63826 -0.35989 -0.031659 0.88827 0.78731 -0.47028 -0.69737 0.12029 -0.41486
milk -0.15167 -0.15619 -0.44806 -0.60201 0.2545 1.6187 -0.66627 -0.41164 0.9857 0.73714 0.78583 0.13991 1.3252 -0.41571 0.89105 0.40628 -0.1482 0.87993 0.025008 -1.1055 0.89081 -0.61227 1.993 0.46231 -0.41077 -0.80039 0.084518 1.1154 1.0585 0.20206 1.9146 0.46098 -0.44134 0.80671 -0.052688 -0.22943 -0.4488 1.0325 1.395 -0.16832 0.37386 -0.25902 -0.36798 -0.18462 0.97543 0.86724 -0.69399 -0.010432 0.63749 -0.47183
hate -0.85233 -0.14749 0.049936 -0.7872 0.19493 0.48929 0.34392 -0.61542 -0.37281 0.77186 -0.71914 -0.12973 -0.40985 -0.65339 0.94961 -0.49831 0.25442 0.049586 0.18927 -0.14948 -0.27686 0.32095 0.85855 1.0173 0.22242 -1.8237 -0.69343 -0.018455 1.4549 -1.1038 1.526 0.69842 -0.5901 -1.0475 -1.2981 -0.47258 -0.3198 -1.3484 -0.19307 0.18261 0.043868 -0.17222 0.16779 0.66191 0.71634 0.16961 -0.34744 -0.15155 -0.051676 0.29743
